AT	V	AP	RH	PE
14.96	41.76	1024.07	73.17	463.26
25.18	62.96	1020.04	59.08	444.37
5.11	39.4	1012.16	92.14	488.56
20.86	57.32	1010.24	76.64	446.48
AT	V	AP	RH	PE
14.96	41.76	1024.07	73.17	463.26
25.18	62.96	1020.04	59.08	444.37
5.11	39.4	1012.16	92.14	488.56
20.86	57.32	1010.24	76.64	446.48
1 test passed.
[('AT', 'double'), ('V', 'double'), ('AP', 'double'), ('RH', 'double'), ('PE', 'double')]
1 test passed.
1 test passed.
1 test passed.
[('AT', 'double'), ('V', 'double'), ('AP', 'double'), ('RH', 'double'), ('PE', 'double')]
1 test passed.
1 test passed.
1 test failed. Incorrect size for training data set
1 test failed. Incorrect size for test data set
elasticNetParam: the ElasticNet mixing parameter, in range [0, 1]. For alpha = 0, the penalty is an L2 penalty. For alpha = 1, it is an L1 penalty. (default: 0.0)
featuresCol: features column name. (default: features)
fitIntercept: whether to fit an intercept term. (default: True)
labelCol: label column name. (default: label)
maxIter: max number of iterations (>= 0). (default: 100)
predictionCol: prediction column name. (default: prediction)
regParam: regularization parameter (>= 0). (default: 0.0)
solver: the solver algorithm for optimization. If this is not set or empty, default value is 'auto'. (default: auto)
standardization: whether to standardize the training features before fitting the model. (default: True)
tol: the convergence tolerance for iterative algorithms. (default: 1e-06)
weightCol: weight column name. If this is not set or empty, we treat all instance weights as 1.0. (undefined)
Linear Regression Equation: y = 428.704023471 - (1.88852870137 * AT) - (0.265901376464 * V) - (0.142217087395 * RH) + (0.0865013567315 * AP)
/usr/lib/spark/python/lib/pyspark.zip/pyspark/ml/regression.py:123: UserWarning: weights is deprecated. Use coefficients instead.
Root Mean Squared Error: 4.60
r2: 0.93
Original Root Mean Squared Error: 4.60
New Root Mean Squared Error: 4.59
Old r2: 0.93
New r2: 0.93
1 test failed. Incorrect value for rmse
1 test failed. Incorrect value for rmseNew
1 test passed.
1 test passed.
Regularization parameter of the best model: 0.01
1 test passed.
1 test passed.
1 test passed.
1 test passed.
LR Root Mean Squared Error: 4.59
DT Root Mean Squared Error: 5.15
LR r2: 0.93
DT r2: 0.91
1 test failed. Incorrect value for rmseDT
1 test passed.
DecisionTreeRegressionModel (uid=DecisionTreeRegressor_4c77bd8945b6e9af8524) of depth 3 with 15 nodes
  If (feature 0 <= 17.84)
   If (feature 0 <= 11.67)
    If (feature 0 <= 8.64)
     Predict: 483.85282216100404
    Else (feature 0 > 8.64)
     Predict: 476.23046232876703
   Else (feature 0 > 11.67)
    If (feature 0 <= 14.37)
     Predict: 469.1062589126559
    Else (feature 0 > 14.37)
     Predict: 462.1762355094568
  Else (feature 0 > 17.84)
   If (feature 0 <= 22.77)
    If (feature 1 <= 46.18)
     Predict: 458.13769283276457
    Else (feature 1 > 46.18)
     Predict: 449.19110839445807
   Else (feature 0 > 22.77)
    If (feature 1 <= 66.25)
     Predict: 442.92717372262763
    Else (feature 1 > 66.25)
     Predict: 434.7663081149619

1 test passed.
1 test passed.
1 test passed.
1 test passed.
LR Root Mean Squared Error: 4.59
DT Root Mean Squared Error: 5.15
RF Root Mean Squared Error: 3.55
LR r2: 0.93
DT r2: 0.91
RF r2: 0.96
1 test failed. Incorrect value for rmseRF
1 test passed.
RandomForestRegressionModel (uid=rfr_ac2c78e49d1c) with 25 trees
  Tree 0 (weight 1.0):
    If (feature 2 <= 1014.8)
     If (feature 3 <= 76.66)
      If (feature 2 <= 1011.53)
       If (feature 0 <= 21.16)
        If (feature 2 <= 1010.42)
         If (feature 0 <= 14.36)
          If (feature 0 <= 10.53)
           If (feature 0 <= 6.9)
            Predict: 484.7396153846154
           Else (feature 0 > 6.9)
            Predict: 478.82499999999993
          Else (feature 0 > 10.53)
           If (feature 0 <= 13.04)
            Predict: 473.0348453608248
           Else (feature 0 > 13.04)
            Predict: 468.22877551020423
         Else (feature 0 > 14.36)
          If (feature 0 <= 17.79)
           If (feature 3 <= 58.91)
            Predict: 456.3468421052632
           Else (feature 3 > 58.91)
            Predict: 461.941971830986
          Else (feature 0 > 17.79)
           If (feature 0 <= 20.67)
            Predict: 455.29819753086434
           Else (feature 0 > 20.67)
            Predict: 451.5811570247932
        Else (feature 2 > 1010.42)
         If (feature 3 <= 69.11)
          If (feature 1 <= 42.04)
           If (feature 3 <= 68.72)
            Predict: 469.66115384615387
           Else (feature 3 > 68.72)
            Predict: 494.91000000000105
          Else (feature 1 > 42.04)
           If (feature 3 <= 62.13)
            Predict: 458.86208333333326
           Else (feature 3 > 62.13)
            Predict: 450.0045454545455
         Else (feature 3 > 69.11)
          If (feature 0 <= 10.29)
           If (feature 3 <= 72.31)
            Predict: 488.11199999999997
           Else (feature 3 > 72.31)
            Predict: 478.17444444444453
          Else (feature 0 > 10.29)
           If (feature 3 <= 74.04)
            Predict: 465.4945283018868
           Else (feature 3 > 74.04)
            Predict: 460.7616666666665
       Else (feature 0 > 21.16)
        If (feature 0 <= 26.59)
         If (feature 0 <= 25.2)
          If (feature 0 <= 23.03)
           If (feature 0 <= 22.35)
            Predict: 447.10949999999997
           Else (feature 0 > 22.35)
            Predict: 444.64094527363176
          Else (feature 0 > 23.03)
           If (feature 3 <= 58.12)
            Predict: 446.2259649122807
           Else (feature 3 > 58.12)
            Predict: 441.76363815142565
         Else (feature 0 > 25.2)
          If (feature 1 <= 65.94)
           If (feature 3 <= 57.19)
            Predict: 444.7040983606557
           Else (feature 3 > 57.19)
            Predict: 440.70806722689065
          Else (feature 1 > 65.94)
           If (feature 0 <= 25.42)
            Predict: 438.9397435897436
           Else (feature 0 > 25.42)
            Predict: 436.51794270833335
        Else (feature 0 > 26.59)
         If (feature 2 <= 1008.81)
          If (feature 0 <= 28.47)
           If (feature 1 <= 64.69)
            Predict: 439.50723776223776
           Else (feature 1 > 64.69)
            Predict: 433.7208378870675
          Else (feature 0 > 28.47)
           If (feature 1 <= 64.69)
            Predict: 436.9723655913979
           Else (feature 1 > 64.69)
            Predict: 432.2504759746147
         Else (feature 2 > 1008.81)
          If (feature 0 <= 29.24)
           If (feature 3 <= 65.8)
            Predict: 438.9336893203884
           Else (feature 3 > 65.8)
            Predict: 436.2143701799488
          Else (feature 0 > 29.24)
           If (feature 1 <= 65.94)
            Predict: 440.5420754716981
           Else (feature 1 > 65.94)
            Predict: 433.96226824457585
      Else (feature 2 > 1011.53)
       If (feature 1 <= 45.0)
        If (feature 0 <= 13.92)
         If (feature 1 <= 41.17)
          If (feature 1 <= 39.9)
           If (feature 3 <= 72.73)
            Predict: 479.340925925926
           Else (feature 3 > 72.73)
            Predict: 474.5476335877862
          Else (feature 1 > 39.9)
           If (feature 0 <= 6.9)
            Predict: 494.4693333333334
           Else (feature 0 > 6.9)
            Predict: 477.9633333333335
         Else (feature 1 > 41.17)
          If (feature 1 <= 41.54)
           If (feature 2 <= 1013.56)
            Predict: 465.39250000000004
           Else (feature 2 > 1013.56)
            Predict: 461.18500000000006
          Else (feature 1 > 41.54)
           If (feature 0 <= 11.7)
            Predict: 477.3912068965517
           Else (feature 0 > 11.7)
            Predict: 470.4697014925373
        Else (feature 0 > 13.92)
         If (feature 1 <= 43.02)
          If (feature 0 <= 18.4)
           If (feature 0 <= 16.5)
            Predict: 467.7614110429448
           Else (feature 0 > 16.5)
            Predict: 465.2109210526316
          Else (feature 0 > 18.4)
           If (feature 0 <= 20.1)
            Predict: 462.5014285714286
           Else (feature 0 > 20.1)
            Predict: 460.13487804878054
         Else (feature 1 > 43.02)
          If (feature 2 <= 1011.87)
           If (feature 0 <= 25.77)
            Predict: 445.88625
           Else (feature 0 > 25.77)
            Predict: 435.86999999999995
          Else (feature 2 > 1011.87)
           If (feature 2 <= 1012.78)
            Predict: 456.329090909091
           Else (feature 2 > 1012.78)
            Predict: 463.46364864864864
       Else (feature 1 > 45.0)
        If (feature 1 <= 67.25)
         If (feature 1 <= 52.75)
          If (feature 3 <= 62.13)
           If (feature 2 <= 1013.88)
            Predict: 450.49271698113216
           Else (feature 2 > 1013.88)
            Predict: 452.65188524590127
          Else (feature 3 > 62.13)
           If (feature 1 <= 45.51)
            Predict: 458.1105263157895
           Else (feature 1 > 45.51)
            Predict: 454.17417218543056
         Else (feature 1 > 52.75)
          If (feature 1 <= 66.56)
           If (feature 1 <= 58.98)
            Predict: 445.6525621118012
           Else (feature 1 > 58.98)
            Predict: 443.1114658210007
          Else (feature 1 > 66.56)
           If (feature 0 <= 21.91)
            Predict: 453.1796825396825
           Else (feature 0 > 21.91)
            Predict: 445.66999999999973
        Else (feature 1 > 67.25)
         If (feature 3 <= 42.74)
          If (feature 2 <= 1014.38)
           If (feature 1 <= 73.21)
            Predict: 435.3763043478261
           Else (feature 1 > 73.21)
            Predict: 428.4707692307692
          Else (feature 2 > 1014.38)
           If (feature 0 <= 32.16)
            Predict: 430.49222222222227
           Else (feature 0 > 32.16)
            Predict: 425.1700000000001
         Else (feature 3 > 42.74)
          If (feature 1 <= 69.75)
           If (feature 3 <= 55.72)
            Predict: 437.1937121212122
           Else (feature 3 > 55.72)
            Predict: 441.5918072289154
          Else (feature 1 > 69.75)
           If (feature 2 <= 1014.38)
            Predict: 434.4712684365782
           Else (feature 2 > 1014.38)
            Predict: 428.3303703703703
     Else (feature 3 > 76.66)
      If (feature 1 <= 46.21)
       If (feature 0 <= 11.95)
        If (feature 1 <= 41.31)
         If (feature 1 <= 38.28)
          If (feature 0 <= 9.05)
           If (feature 1 <= 35.79)
            Predict: 483.7539285714286
           Else (feature 1 > 35.79)
            Predict: 480.9589898989899
          Else (feature 0 > 9.05)
           If (feature 0 <= 10.53)
            Predict: 473.062676056338
           Else (feature 0 > 10.53)
            Predict: 471.7018279569893
         Else (feature 1 > 38.28)
          If (feature 0 <= 7.84)
           If (feature 1 <= 38.68)
            Predict: 490.579268292683
           Else (feature 1 > 38.68)
            Predict: 486.3698684210525
          Else (feature 0 > 7.84)
           If (feature 2 <= 1004.92)
            Predict: 471.6778378378379
           Else (feature 2 > 1004.92)
            Predict: 477.8086295503211
        Else (feature 1 > 41.31)
         If (feature 1 <= 42.04)
          If (feature 0 <= 9.05)
           If (feature 3 <= 92.86)
            Predict: 482.2558333333332
           Else (feature 3 > 92.86)
            Predict: 484.36375
          Else (feature 0 > 9.05)
           If (feature 1 <= 41.66)
            Predict: 467.22951612903233
           Else (feature 1 > 41.66)
            Predict: 473.2174666666667
         Else (feature 1 > 42.04)
          If (feature 0 <= 8.62)
           If (feature 3 <= 86.64)
            Predict: 484.53710526315786
           Else (feature 3 > 86.64)
            Predict: 481.72424418604646
          Else (feature 0 > 8.62)
           If (feature 0 <= 10.75)
            Predict: 477.2298843930636
           Else (feature 0 > 10.75)
            Predict: 471.9722727272727
       Else (feature 0 > 11.95)
        If (feature 0 <= 15.56)
         If (feature 2 <= 1011.01)
          If (feature 1 <= 41.03)
           If (feature 2 <= 1010.89)
            Predict: 469.23336363636366
           Else (feature 2 > 1010.89)
            Predict: 465.08350000000064
          Else (feature 1 > 41.03)
           If (feature 2 <= 1007.69)
            Predict: 466.9091286307054
           Else (feature 2 > 1007.69)
            Predict: 463.88198717948717
         Else (feature 2 > 1011.01)
          If (feature 3 <= 87.29)
           If (feature 1 <= 41.54)
            Predict: 471.1375833333334
           Else (feature 1 > 41.54)
            Predict: 465.86891891891855
          Else (feature 3 > 87.29)
           If (feature 0 <= 13.76)
            Predict: 469.61762820512814
           Else (feature 0 > 13.76)
            Predict: 466.1136477987421
        Else (feature 0 > 15.56)
         If (feature 1 <= 43.02)
          If (feature 0 <= 18.4)
           If (feature 2 <= 1012.91)
            Predict: 463.62951768488745
           Else (feature 2 > 1012.91)
            Predict: 465.8080000000011
          Else (feature 0 > 18.4)
           If (feature 3 <= 80.67)
            Predict: 462.35812500000003
           Else (feature 3 > 80.67)
            Predict: 457.59604651162783
         Else (feature 1 > 43.02)
          If (feature 0 <= 20.91)
           If (feature 2 <= 1010.58)
            Predict: 455.8349206349206
           Else (feature 2 > 1010.58)
            Predict: 460.1581168831169
          Else (feature 0 > 20.91)
           If (feature 0 <= 25.2)
            Predict: 447.84916666666663
           Else (feature 0 > 25.2)
            Predict: 433.42666666666673
      Else (feature 1 > 46.21)
       If (feature 0 <= 20.91)
        If (feature 2 <= 1012.78)
         If (feature 1 <= 50.59)
          If (feature 0 <= 15.56)
           If (feature 2 <= 1008.44)
            Predict: 464.2839805825243
           Else (feature 2 > 1008.44)
            Predict: 460.239295774648
          Else (feature 0 > 15.56)
           If (feature 0 <= 18.94)
            Predict: 453.53027027027025
           Else (feature 0 > 18.94)
            Predict: 448.91829931972785
         Else (feature 1 > 50.59)
          If (feature 0 <= 18.4)
           If (feature 2 <= 1006.83)
            Predict: 448.84569444444446
           Else (feature 2 > 1006.83)
            Predict: 455.1600657894736
          Else (feature 0 > 18.4)
           If (feature 0 <= 20.37)
            Predict: 448.81804494382015
           Else (feature 0 > 20.37)
            Predict: 446.63260115606937
        Else (feature 2 > 1012.78)
         If (feature 1 <= 53.82)
          If (feature 2 <= 1012.91)
           Predict: 468.36999999999995
          Else (feature 2 > 1012.91)
           If (feature 1 <= 47.43)
            Predict: 455.56434782608693
           Else (feature 1 > 47.43)
            Predict: 458.55153543307097
         Else (feature 1 > 53.82)
          If (feature 2 <= 1013.56)
           If (feature 0 <= 19.82)
            Predict: 451.2376470588235
           Else (feature 0 > 19.82)
            Predict: 446.03697674418606
          Else (feature 2 > 1013.56)
           If (feature 0 <= 18.15)
            Predict: 454.4175
           Else (feature 0 > 18.15)
            Predict: 448.7304225352114
       Else (feature 0 > 20.91)
        If (feature 2 <= 1007.09)
         If (feature 1 <= 68.84)
          If (feature 0 <= 24.23)
           If (feature 2 <= 1005.35)
            Predict: 439.66409090909093
           Else (feature 2 > 1005.35)
            Predict: 443.174135338346
          Else (feature 0 > 24.23)
           If (feature 2 <= 1005.35)
            Predict: 434.20193548387095
           Else (feature 2 > 1005.35)
            Predict: 439.7481481481481
         Else (feature 1 > 68.84)
          If (feature 0 <= 24.23)
           If (feature 2 <= 1006.29)
            Predict: 436.5286259541984
           Else (feature 2 > 1006.29)
            Predict: 438.0908695652174
          Else (feature 0 > 24.23)
           If (feature 2 <= 1003.54)
            Predict: 432.0327272727273
           Else (feature 2 > 1003.54)
            Predict: 433.0151732673266
        Else (feature 2 > 1007.09)
         If (feature 1 <= 65.94)
          If (feature 2 <= 1012.02)
           If (feature 2 <= 1009.21)
            Predict: 444.3203504672897
           Else (feature 2 > 1009.21)
            Predict: 443.5265972222222
          Else (feature 2 > 1012.02)
           If (feature 1 <= 59.57)
            Predict: 446.24732793522264
           Else (feature 1 > 59.57)
            Predict: 443.8495638629282
         Else (feature 1 > 65.94)
          If (feature 0 <= 25.42)
           If (feature 2 <= 1010.58)
            Predict: 439.78191029900336
           Else (feature 2 > 1010.58)
            Predict: 437.723971291866
          Else (feature 0 > 25.42)
           If (feature 1 <= 71.58)
            Predict: 434.80983914209116
           Else (feature 1 > 71.58)
            Predict: 433.1099161425575
    Else (feature 2 > 1014.8)
     If (feature 2 <= 1018.51)
      If (feature 0 <= 17.44)
       If (feature 1 <= 45.51)
        If (feature 3 <= 59.51)
         If (feature 0 <= 9.42)
          If (feature 3 <= 54.96)
           If (feature 3 <= 47.94)
            Predict: 488.275
           Else (feature 3 > 47.94)
            Predict: 489.6659999999998
          Else (feature 3 > 54.96)
           If (feature 2 <= 1015.77)
            Predict: 479.48307692307696
           Else (feature 2 > 1015.77)
            Predict: 491.4000000000001
         Else (feature 0 > 9.42)
          If (feature 3 <= 46.45)
           If (feature 0 <= 16.17)
            Predict: 466.416875
           Else (feature 0 > 16.17)
            Predict: 454.564
          Else (feature 3 > 46.45)
           If (feature 2 <= 1014.96)
            Predict: 473.2966666666667
           Else (feature 2 > 1014.96)
            Predict: 466.00102439024374
        Else (feature 3 > 59.51)
         If (feature 3 <= 84.16)
          If (feature 2 <= 1015.15)
           If (feature 1 <= 43.41)
            Predict: 473.26682539682537
           Else (feature 1 > 43.41)
            Predict: 476.9390476190477
          Else (feature 2 > 1015.15)
           If (feature 3 <= 78.2)
            Predict: 471.6627176781002
           Else (feature 3 > 78.2)
            Predict: 473.0151244509515
         Else (feature 3 > 84.16)
          If (feature 0 <= 11.06)
           If (feature 1 <= 40.62)
            Predict: 483.3595548961424
           Else (feature 1 > 40.62)
            Predict: 477.664751552795
          Else (feature 0 > 11.06)
           If (feature 1 <= 40.2)
            Predict: 474.0987096774194
           Else (feature 1 > 40.2)
            Predict: 467.17391120507403
       Else (feature 1 > 45.51)
        If (feature 3 <= 89.49)
         If (feature 0 <= 16.17)
          If (feature 0 <= 13.76)
           If (feature 0 <= 12.49)
            Predict: 470.45454545454544
           Else (feature 0 > 12.49)
            Predict: 466.7659183673469
          Else (feature 0 > 13.76)
           If (feature 1 <= 55.5)
            Predict: 463.4954248366012
           Else (feature 1 > 55.5)
            Predict: 452.7027272727282
         Else (feature 0 > 16.17)
          If (feature 1 <= 55.5)
           If (feature 1 <= 49.25)
            Predict: 457.2730769230769
           Else (feature 1 > 49.25)
            Predict: 460.3506849315068
          Else (feature 1 > 55.5)
           If (feature 3 <= 87.29)
            Predict: 454.94619047619045
           Else (feature 3 > 87.29)
            Predict: 453.08833333333314
        Else (feature 3 > 89.49)
         If (feature 0 <= 16.76)
          If (feature 3 <= 92.04)
           If (feature 3 <= 90.93)
            Predict: 457.64705882352945
           Else (feature 3 > 90.93)
            Predict: 454.56454545454545
          Else (feature 3 > 92.04)
           If (feature 3 <= 94.53)
            Predict: 462.53999999999996
           Else (feature 3 > 94.53)
            Predict: 457.63071428571413
         Else (feature 0 > 16.76)
          If (feature 2 <= 1016.86)
           Predict: 451.66999999999996
          Else (feature 2 > 1016.86)
           Predict: 450.02
      Else (feature 0 > 17.44)
       If (feature 0 <= 24.62)
        If (feature 3 <= 49.25)
         If (feature 2 <= 1017.08)
          If (feature 0 <= 22.82)
           If (feature 0 <= 20.1)
            Predict: 464.396265060241
           Else (feature 0 > 20.1)
            Predict: 461.45761904761906
          Else (feature 0 > 22.82)
           If (feature 3 <= 42.74)
            Predict: 459.51
           Else (feature 3 > 42.74)
            Predict: 446.44846153846146
         Else (feature 2 > 1017.08)
          If (feature 2 <= 1017.46)
           If (feature 1 <= 44.6)
            Predict: 464.44
           Else (feature 1 > 44.6)
            Predict: 445.09399999999994
          Else (feature 2 > 1017.46)
           Predict: 466.1999999999998
        Else (feature 3 > 49.25)
         If (feature 0 <= 20.67)
          If (feature 3 <= 68.23)
           If (feature 0 <= 18.73)
            Predict: 460.903
           Else (feature 0 > 18.73)
            Predict: 455.9957246376812
          Else (feature 3 > 68.23)
           If (feature 1 <= 55.5)
            Predict: 457.11416289592756
           Else (feature 1 > 55.5)
            Predict: 450.9252477064218
         Else (feature 0 > 20.67)
          If (feature 1 <= 58.16)
           If (feature 3 <= 74.04)
            Predict: 453.38926701570693
           Else (feature 3 > 74.04)
            Predict: 448.8878571428572
          Else (feature 1 > 58.16)
           If (feature 2 <= 1017.29)
            Predict: 447.2684626038782
           Else (feature 2 > 1017.29)
            Predict: 444.4749388753055
       Else (feature 0 > 24.62)
        If (feature 1 <= 66.49)
         If (feature 2 <= 1015.77)
          If (feature 3 <= 54.15)
           If (feature 1 <= 60.07)
            Predict: 441.0841666666667
           Else (feature 1 > 60.07)
            Predict: 444.1418918918919
          Else (feature 3 > 54.15)
           If (feature 3 <= 68.23)
            Predict: 450.50567901234575
           Else (feature 3 > 68.23)
            Predict: 441.51705882352945
         Else (feature 2 > 1015.77)
          If (feature 0 <= 26.19)
           If (feature 2 <= 1016.65)
            Predict: 447.7146376811594
           Else (feature 2 > 1016.65)
            Predict: 443.04960674157303
          Else (feature 0 > 26.19)
           If (feature 3 <= 49.25)
            Predict: 442.4918032786885
           Else (feature 3 > 49.25)
            Predict: 439.4593243243242
        Else (feature 1 > 66.49)
         If (feature 2 <= 1016.65)
          If (feature 1 <= 66.56)
           If (feature 3 <= 41.26)
            Predict: 436.1330769230769
           Else (feature 3 > 41.26)
            Predict: 439.2861111111112
          Else (feature 1 > 66.56)
           If (feature 2 <= 1015.99)
            Predict: 432.97825688073397
           Else (feature 2 > 1015.99)
            Predict: 430.6226027397262
         Else (feature 2 > 1016.65)
          If (feature 3 <= 53.32)
           If (feature 3 <= 47.94)
            Predict: 434.10024999999996
           Else (feature 3 > 47.94)
            Predict: 435.8273913043478
          Else (feature 3 > 53.32)
           If (feature 3 <= 73.56)
            Predict: 439.50494186046507
           Else (feature 3 > 73.56)
            Predict: 434.60686274509857
     Else (feature 2 > 1018.51)
      If (feature 1 <= 45.51)
       If (feature 3 <= 67.26)
        If (feature 2 <= 1025.26)
         If (feature 1 <= 43.67)
          If (feature 1 <= 39.3)
           If (feature 0 <= 13.76)
            Predict: 473.9650862068965
           Else (feature 0 > 13.76)
            Predict: 462.5744444444442
          Else (feature 1 > 39.3)
           If (feature 0 <= 6.43)
            Predict: 494.2569230769231
           Else (feature 0 > 6.43)
            Predict: 474.4016045845272
         Else (feature 1 > 43.67)
          If (feature 0 <= 12.24)
           If (feature 2 <= 1021.63)
            Predict: 482.0621428571429
           Else (feature 2 > 1021.63)
            Predict: 471.47799999999995
          Else (feature 0 > 12.24)
           If (feature 2 <= 1021.63)
            Predict: 462.8608510638299
           Else (feature 2 > 1021.63)
            Predict: 469.05367088607585
        Else (feature 2 > 1025.26)
         If (feature 1 <= 40.81)
          If (feature 3 <= 53.32)
           If (feature 3 <= 51.47)
            Predict: 472.8500000000001
           Else (feature 3 > 51.47)
            Predict: 471.78
          Else (feature 3 > 53.32)
           If (feature 2 <= 1026.3)
            Predict: 474.8525
           Else (feature 2 > 1026.3)
            Predict: 474.4700000000001
         Else (feature 1 > 40.81)
          If (feature 2 <= 1026.3)
           If (feature 3 <= 63.73)
            Predict: 456.21
           Else (feature 3 > 63.73)
            Predict: 457.205
          Else (feature 2 > 1026.3)
           If (feature 2 <= 1028.31)
            Predict: 462.2558333333333
           Else (feature 2 > 1028.31)
            Predict: 465.2632500000001
       Else (feature 3 > 67.26)
        If (feature 1 <= 41.54)
         If (feature 3 <= 94.53)
          If (feature 0 <= 10.75)
           If (feature 3 <= 87.67)
            Predict: 481.53792395896204
           Else (feature 3 > 87.67)
            Predict: 479.320946882217
          Else (feature 0 > 10.75)
           If (feature 1 <= 40.75)
            Predict: 472.0593403693931
           Else (feature 1 > 40.75)
            Predict: 468.63847389558237
         Else (feature 3 > 94.53)
          If (feature 0 <= 6.43)
           If (feature 2 <= 1019.03)
            Predict: 489.944
           Else (feature 2 > 1019.03)
            Predict: 481.4372
          Else (feature 0 > 6.43)
           If (feature 1 <= 41.14)
            Predict: 472.9128755364807
           Else (feature 1 > 41.14)
            Predict: 470.6037500000002
        Else (feature 1 > 41.54)
         If (feature 0 <= 11.7)
          If (feature 3 <= 90.93)
           If (feature 3 <= 71.24)
            Predict: 482.3654794520548
           Else (feature 3 > 71.24)
            Predict: 479.2815107913668
          Else (feature 3 > 90.93)
           If (feature 2 <= 1022.09)
            Predict: 468.9742682926829
           Else (feature 2 > 1022.09)
            Predict: 476.6946601941748
         Else (feature 0 > 11.7)
          If (feature 2 <= 1022.09)
           If (feature 0 <= 14.94)
            Predict: 465.60888554216865
           Else (feature 0 > 14.94)
            Predict: 461.0879039301313
          Else (feature 2 > 1022.09)
           If (feature 3 <= 87.67)
            Predict: 466.2057523809524
           Else (feature 3 > 87.67)
            Predict: 467.88377192982455
      Else (feature 1 > 45.51)
       If (feature 0 <= 21.43)
        If (feature 2 <= 1021.63)
         If (feature 0 <= 16.76)
          If (feature 3 <= 82.59)
           If (feature 3 <= 74.86)
            Predict: 456.29210526315785
           Else (feature 3 > 74.86)
            Predict: 461.0401886792453
          Else (feature 3 > 82.59)
           If (feature 3 <= 88.5)
            Predict: 466.8567567567568
           Else (feature 3 > 88.5)
            Predict: 463.3799999999998
         Else (feature 0 > 16.76)
          If (feature 1 <= 58.16)
           If (feature 2 <= 1020.12)
            Predict: 457.0849032258065
           Else (feature 2 > 1020.12)
            Predict: 455.90515679442507
          Else (feature 1 > 58.16)
           If (feature 3 <= 72.31)
            Predict: 454.00750000000005
           Else (feature 3 > 72.31)
            Predict: 450.6607983193277
        Else (feature 2 > 1021.63)
         If (feature 1 <= 51.95)
          If (feature 3 <= 77.84)
           If (feature 2 <= 1026.3)
            Predict: 461.85941176470584
           Else (feature 2 > 1026.3)
            Predict: 459.18999999999994
          Else (feature 3 > 77.84)
           If (feature 3 <= 81.43)
            Predict: 438.3
           Else (feature 3 > 81.43)
            Predict: 461.0513333333332
         Else (feature 1 > 51.95)
          If (feature 0 <= 12.24)
           If (feature 3 <= 85.23)
            Predict: 469.41911111111114
           Else (feature 3 > 85.23)
            Predict: 473.4500000000002
          Else (feature 0 > 12.24)
           If (feature 3 <= 60.31)
            Predict: 460.19596491228066
           Else (feature 3 > 60.31)
            Predict: 463.9167999999999
       Else (feature 0 > 21.43)
        If (feature 2 <= 1020.79)
         If (feature 2 <= 1019.03)
          If (feature 3 <= 54.15)
           If (feature 3 <= 53.32)
            Predict: 442.2689473684211
           Else (feature 3 > 53.32)
            Predict: 420.26
          Else (feature 3 > 54.15)
           If (feature 0 <= 21.91)
            Predict: 450.992
           Else (feature 0 > 21.91)
            Predict: 442.0930120481928
         Else (feature 2 > 1019.03)
          If (feature 3 <= 80.15)
           If (feature 3 <= 60.91)
            Predict: 445.30790322580646
           Else (feature 3 > 60.91)
            Predict: 447.923173076923
          Else (feature 3 > 80.15)
           If (feature 2 <= 1020.33)
            Predict: 447.53999999999996
           Else (feature 2 > 1020.33)
            Predict: 421.56999999999994
        Else (feature 2 > 1020.79)
         If (feature 0 <= 23.62)
          If (feature 0 <= 22.82)
           If (feature 2 <= 1021.15)
            Predict: 452.96384615384613
           Else (feature 2 > 1021.15)
            Predict: 453.3
          Else (feature 0 > 22.82)
           If (feature 3 <= 70.85)
            Predict: 450.38124999999997
           Else (feature 3 > 70.85)
            Predict: 452.26
         Else (feature 0 > 23.62)
          If (feature 3 <= 60.91)
           If (feature 3 <= 60.31)
            Predict: 447.59375
           Else (feature 3 > 60.31)
            Predict: 449.10999999999996
          Else (feature 3 > 60.91)
           If (feature 2 <= 1021.15)
            Predict: 447.95
           Else (feature 2 > 1021.15)
            Predict: 447.13333333333344
  Tree 1 (weight 1.0):
    If (feature 1 <= 46.21)
     If (feature 0 <= 11.95)
      If (feature 0 <= 8.62)
       If (feature 3 <= 86.64)
        If (feature 2 <= 1028.31)
         If (feature 1 <= 40.03)
          If (feature 3 <= 83.75)
           If (feature 0 <= 7.41)
            Predict: 485.6273886639676
           Else (feature 0 > 7.41)
            Predict: 481.5969798657717
          Else (feature 3 > 83.75)
           If (feature 0 <= 5.84)
            Predict: 488.8298591549296
           Else (feature 0 > 5.84)
            Predict: 483.4912999999999
         Else (feature 1 > 40.03)
          If (feature 1 <= 40.43)
           If (feature 0 <= 6.43)
            Predict: 493.75945205479456
           Else (feature 0 > 6.43)
            Predict: 489.1437254901961
          Else (feature 1 > 40.43)
           If (feature 2 <= 1019.59)
            Predict: 483.53943786982245
           Else (feature 2 > 1019.59)
            Predict: 485.8183478260869
        Else (feature 2 > 1028.31)
         If (feature 0 <= 5.12)
          If (feature 3 <= 69.11)
           Predict: 488.69
          Else (feature 3 > 69.11)
           Predict: 490.3399999999999
         Else (feature 0 > 5.12)
          If (feature 1 <= 41.82)
           If (feature 3 <= 74.86)
            Predict: 480.51344827586206
           Else (feature 3 > 74.86)
            Predict: 478.5358974358975
          Else (feature 1 > 41.82)
           If (feature 3 <= 82.59)
            Predict: 485.11
           Else (feature 3 > 82.59)
            Predict: 485.08000000000004
       Else (feature 3 > 86.64)
        If (feature 2 <= 1021.63)
         If (feature 3 <= 87.29)
          If (feature 2 <= 1015.77)
           If (feature 2 <= 1011.53)
            Predict: 481.69041666666664
           Else (feature 2 > 1011.53)
            Predict: 472.2925806451613
          Else (feature 2 > 1015.77)
           If (feature 2 <= 1020.54)
            Predict: 484.15090909090907
           Else (feature 2 > 1020.54)
            Predict: 492.12000000000006
         Else (feature 3 > 87.29)
          If (feature 0 <= 6.9)
           If (feature 0 <= 5.12)
            Predict: 486.86608040201
           Else (feature 0 > 5.12)
            Predict: 485.6177297297297
          Else (feature 0 > 6.9)
           If (feature 3 <= 96.39)
            Predict: 481.97894080996883
           Else (feature 3 > 96.39)
            Predict: 474.0021621621626
        Else (feature 2 > 1021.63)
         If (feature 3 <= 92.04)
          If (feature 0 <= 7.41)
           If (feature 2 <= 1022.09)
            Predict: 475.8609090909091
           Else (feature 2 > 1022.09)
            Predict: 484.55756097560976
          Else (feature 0 > 7.41)
           If (feature 2 <= 1024.32)
            Predict: 478.10960784313727
           Else (feature 2 > 1024.32)
            Predict: 481.83411764705903
         Else (feature 3 > 92.04)
          If (feature 1 <= 42.04)
           If (feature 0 <= 6.43)
            Predict: 481.26851851851853
           Else (feature 0 > 6.43)
            Predict: 475.21486238532094
          Else (feature 1 > 42.04)
           If (feature 0 <= 8.22)
            Predict: 482.798
           Else (feature 0 > 8.22)
            Predict: 479.31000000000006
      Else (feature 0 > 8.62)
       If (feature 3 <= 92.86)
        If (feature 2 <= 1022.89)
         If (feature 1 <= 44.06)
          If (feature 0 <= 10.75)
           If (feature 3 <= 73.18)
            Predict: 477.1322969837588
           Else (feature 3 > 73.18)
            Predict: 478.36692430278885
          Else (feature 0 > 10.75)
           If (feature 3 <= 55.72)
            Predict: 469.71166666666664
           Else (feature 3 > 55.72)
            Predict: 474.3892247301274
         Else (feature 1 > 44.06)
          If (feature 3 <= 83.75)
           If (feature 2 <= 1019.38)
            Predict: 478.5814583333334
           Else (feature 2 > 1019.38)
            Predict: 486.6799999999999
          Else (feature 3 > 83.75)
           If (feature 0 <= 11.7)
            Predict: 473.4583035714286
           Else (feature 0 > 11.7)
            Predict: 468.1930434782607
        Else (feature 2 > 1022.89)
         If (feature 3 <= 86.98)
          If (feature 3 <= 74.45)
           If (feature 3 <= 67.86)
            Predict: 472.3640000000001
           Else (feature 3 > 67.86)
            Predict: 477.1894267515924
          Else (feature 3 > 74.45)
           If (feature 1 <= 40.2)
            Predict: 478.0389528795812
           Else (feature 1 > 40.2)
            Predict: 480.44018181818166
         Else (feature 3 > 86.98)
          If (feature 0 <= 9.05)
           If (feature 3 <= 90.93)
            Predict: 481.672
           Else (feature 3 > 90.93)
            Predict: 483.3600000000001
          Else (feature 0 > 9.05)
           If (feature 1 <= 41.14)
            Predict: 472.8548214285715
           Else (feature 1 > 41.14)
            Predict: 476.20737704918037
       Else (feature 3 > 92.86)
        If (feature 1 <= 41.66)
         If (feature 2 <= 1008.99)
          If (feature 3 <= 95.44)
           If (feature 2 <= 1002.74)
            Predict: 471.61
           Else (feature 2 > 1002.74)
            Predict: 469.50999999999993
          Else (feature 3 > 95.44)
           If (feature 1 <= 39.69)
            Predict: 473.3029166666667
           Else (feature 1 > 39.69)
            Predict: 475.5200000000001
         Else (feature 2 > 1008.99)
          If (feature 0 <= 9.42)
           If (feature 2 <= 1018.51)
            Predict: 480.8357142857143
           Else (feature 2 > 1018.51)
            Predict: 472.3180952380952
          Else (feature 0 > 9.42)
           If (feature 3 <= 94.53)
            Predict: 467.62100000000004
           Else (feature 3 > 94.53)
            Predict: 470.53027027027025
        Else (feature 1 > 41.66)
         If (feature 0 <= 9.73)
          If (feature 2 <= 1017.66)
           If (feature 3 <= 94.53)
            Predict: 481.25277777777774
           Else (feature 3 > 94.53)
            Predict: 479.36882352941177
          Else (feature 2 > 1017.66)
           If (feature 3 <= 96.39)
            Predict: 479.2371428571429
           Else (feature 3 > 96.39)
            Predict: 476.4080952380952
         Else (feature 0 > 9.73)
          If (feature 2 <= 1017.8)
           If (feature 3 <= 94.53)
            Predict: 478.766956521739
           Else (feature 3 > 94.53)
            Predict: 473.4477570093458
          Else (feature 2 > 1017.8)
           If (feature 2 <= 1022.09)
            Predict: 470.1928358208954
           Else (feature 2 > 1022.09)
            Predict: 472.68647058823495
     Else (feature 0 > 11.95)
      If (feature 2 <= 1012.34)
       If (feature 1 <= 43.02)
        If (feature 0 <= 15.56)
         If (feature 1 <= 41.03)
          If (feature 0 <= 14.12)
           If (feature 0 <= 13.54)
            Predict: 472.34686991869927
           Else (feature 0 > 13.54)
            Predict: 470.0273170731706
          Else (feature 0 > 14.12)
           If (feature 0 <= 14.94)
            Predict: 468.01993150684933
           Else (feature 0 > 14.94)
            Predict: 465.64160377358485
         Else (feature 1 > 41.03)
          If (feature 3 <= 88.12)
           If (feature 3 <= 74.04)
            Predict: 468.2436697247706
           Else (feature 3 > 74.04)
            Predict: 463.5053124999999
          Else (feature 3 > 88.12)
           If (feature 1 <= 42.04)
            Predict: 467.5114634146342
           Else (feature 1 > 42.04)
            Predict: 470.2851351351352
        Else (feature 0 > 15.56)
         If (feature 2 <= 1003.99)
          If (feature 3 <= 58.12)
           If (feature 3 <= 42.74)
            Predict: 450.6214814814815
           Else (feature 3 > 42.74)
            Predict: 456.2550793650794
          Else (feature 3 > 58.12)
           If (feature 0 <= 17.79)
            Predict: 462.60398058252434
           Else (feature 0 > 17.79)
            Predict: 458.0496261682243
         Else (feature 2 > 1003.99)
          If (feature 0 <= 22.11)
           If (feature 2 <= 1008.61)
            Predict: 462.41171662125345
           Else (feature 2 > 1008.61)
            Predict: 463.9435885167464
          Else (feature 0 > 22.11)
           If (feature 3 <= 63.73)
            Predict: 449.00666666666666
           Else (feature 3 > 63.73)
            Predict: 440.69000000000005
       Else (feature 1 > 43.02)
        If (feature 3 <= 65.32)
         If (feature 3 <= 41.26)
          If (feature 2 <= 1009.36)
           If (feature 2 <= 1008.61)
            Predict: 461.47263157894736
           Else (feature 2 > 1008.61)
            Predict: 464.76999999999987
          Else (feature 2 > 1009.36)
           Predict: 446.0500000000002
         Else (feature 3 > 41.26)
          If (feature 0 <= 20.91)
           If (feature 2 <= 1011.39)
            Predict: 456.95456790123455
           Else (feature 2 > 1011.39)
            Predict: 463.75999999999976
          Else (feature 0 > 20.91)
           If (feature 0 <= 28.22)
            Predict: 446.59841269841263
           Else (feature 0 > 28.22)
            Predict: 433.35444444444414
        Else (feature 3 > 65.32)
         If (feature 0 <= 17.13)
          If (feature 0 <= 14.12)
           If (feature 2 <= 1012.02)
            Predict: 466.30060150375937
           Else (feature 2 > 1012.02)
            Predict: 474.4500000000002
          Else (feature 0 > 14.12)
           If (feature 2 <= 1010.58)
            Predict: 458.4441111111111
           Else (feature 2 > 1010.58)
            Predict: 462.43535353535344
         Else (feature 0 > 17.13)
          If (feature 1 <= 43.41)
           If (feature 2 <= 1011.87)
            Predict: 438.1271428571428
           Else (feature 2 > 1011.87)
            Predict: 433.48230769230764
          Else (feature 1 > 43.41)
           If (feature 2 <= 1007.5)
            Predict: 449.20663043478254
           Else (feature 2 > 1007.5)
            Predict: 453.45951999999994
      Else (feature 2 > 1012.34)
       If (feature 3 <= 49.25)
        If (feature 2 <= 1020.54)
         If (feature 1 <= 44.89)
          If (feature 0 <= 16.17)
           If (feature 3 <= 47.94)
            Predict: 466.9423529411765
           Else (feature 3 > 47.94)
            Predict: 471.0799999999999
          Else (feature 0 > 16.17)
           If (feature 0 <= 16.5)
            Predict: 453.4066666666667
           Else (feature 0 > 16.5)
            Predict: 462.58236514522827
         Else (feature 1 > 44.89)
          If (feature 2 <= 1014.22)
           If (feature 2 <= 1014.05)
            Predict: 452.6333333333334
           Else (feature 2 > 1014.05)
            Predict: 451.81333333333333
          Else (feature 2 > 1014.22)
           Predict: 456.25
        Else (feature 2 > 1020.54)
         If (feature 3 <= 46.45)
          If (feature 0 <= 14.77)
           If (feature 0 <= 13.54)
            Predict: 478.96
           Else (feature 0 > 13.54)
            Predict: 475.98
          Else (feature 0 > 14.77)
           If (feature 1 <= 42.04)
            Predict: 467.20611111111117
           Else (feature 1 > 42.04)
            Predict: 469.8919230769231
         Else (feature 3 > 46.45)
          If (feature 2 <= 1022.89)
           If (feature 2 <= 1022.09)
            Predict: 467.51000000000005
           Else (feature 2 > 1022.09)
            Predict: 467.5400000000001
          Else (feature 2 > 1022.89)
           Predict: 465.46000000000004
       Else (feature 3 > 49.25)
        If (feature 0 <= 14.12)
         If (feature 1 <= 41.44)
          If (feature 0 <= 13.32)
           If (feature 2 <= 1016.86)
            Predict: 473.2523821989529
           Else (feature 2 > 1016.86)
            Predict: 470.9303797468353
          Else (feature 0 > 13.32)
           If (feature 1 <= 39.9)
            Predict: 470.6690697674417
           Else (feature 1 > 39.9)
            Predict: 467.2341065830721
         Else (feature 1 > 41.44)
          If (feature 1 <= 42.34)
           If (feature 2 <= 1020.79)
            Predict: 465.89902234636867
           Else (feature 2 > 1020.79)
            Predict: 470.6306666666666
          Else (feature 1 > 42.34)
           If (feature 2 <= 1016.86)
            Predict: 470.5478197674419
           Else (feature 2 > 1016.86)
            Predict: 468.3534401349073
        Else (feature 0 > 14.12)
         If (feature 0 <= 16.76)
          If (feature 3 <= 82.59)
           If (feature 1 <= 41.44)
            Predict: 466.77322085889574
           Else (feature 1 > 41.44)
            Predict: 464.4296274738068
          Else (feature 3 > 82.59)
           If (feature 0 <= 15.56)
            Predict: 463.8617061611374
           Else (feature 0 > 15.56)
            Predict: 461.3986713286714
         Else (feature 0 > 16.76)
          If (feature 3 <= 68.23)
           If (feature 0 <= 18.73)
            Predict: 462.83239215686274
           Else (feature 0 > 18.73)
            Predict: 459.5909950248756
          Else (feature 3 > 68.23)
           If (feature 1 <= 43.41)
            Predict: 461.11690789473687
           Else (feature 1 > 43.41)
            Predict: 457.6976165803108
    Else (feature 1 > 46.21)
     If (feature 2 <= 1011.53)
      If (feature 0 <= 22.35)
       If (feature 2 <= 1008.24)
        If (feature 1 <= 50.59)
         If (feature 3 <= 89.91)
          If (feature 2 <= 1007.09)
           If (feature 3 <= 89.03)
            Predict: 453.1811258278145
           Else (feature 3 > 89.03)
            Predict: 464.02250000000095
          Else (feature 2 > 1007.09)
           If (feature 3 <= 87.29)
            Predict: 452.22296703296706
           Else (feature 3 > 87.29)
            Predict: 444.52666666666687
         Else (feature 3 > 89.91)
          If (feature 3 <= 97.55)
           If (feature 0 <= 15.56)
            Predict: 464.9462790697674
           Else (feature 0 > 15.56)
            Predict: 447.7333333333332
          Else (feature 3 > 97.55)
           If (feature 0 <= 18.15)
            Predict: 452.79657142857144
           Else (feature 0 > 18.15)
            Predict: 446.58899999999994
        Else (feature 1 > 50.59)
         If (feature 1 <= 68.51)
          If (feature 3 <= 96.39)
           If (feature 2 <= 1007.3)
            Predict: 445.3659090909091
           Else (feature 2 > 1007.3)
            Predict: 447.76890510948914
          Else (feature 3 > 96.39)
           If (feature 2 <= 1007.09)
            Predict: 450.393768115942
           Else (feature 2 > 1007.09)
            Predict: 448.62428571428507
         Else (feature 1 > 68.51)
          If (feature 2 <= 1004.49)
           If (feature 0 <= 21.16)
            Predict: 442.6496551724138
           Else (feature 0 > 21.16)
            Predict: 439.5755555555556
          Else (feature 2 > 1004.49)
           If (feature 2 <= 1006.83)
            Predict: 435.81444444444446
           Else (feature 2 > 1006.83)
            Predict: 442.3500000000001
       Else (feature 2 > 1008.24)
        If (feature 3 <= 70.85)
         If (feature 3 <= 69.11)
          If (feature 1 <= 49.82)
           If (feature 3 <= 61.6)
            Predict: 456.7315384615385
           Else (feature 3 > 61.6)
            Predict: 449.80428571428575
          Else (feature 1 > 49.82)
           If (feature 2 <= 1009.55)
            Predict: 451.72172413793106
           Else (feature 2 > 1009.55)
            Predict: 445.83590909090907
         Else (feature 3 > 69.11)
          If (feature 2 <= 1010.42)
           If (feature 1 <= 49.82)
            Predict: 454.13117647058823
           Else (feature 1 > 49.82)
            Predict: 448.4899999999998
          Else (feature 2 > 1010.42)
           Predict: 461.52
        Else (feature 3 > 70.85)
         If (feature 0 <= 20.67)
          If (feature 1 <= 60.32)
           If (feature 1 <= 51.19)
            Predict: 450.7827125506073
           Else (feature 1 > 51.19)
            Predict: 452.82834355828226
          Else (feature 1 > 60.32)
           If (feature 2 <= 1010.58)
            Predict: 447.52176470588233
           Else (feature 2 > 1010.58)
            Predict: 449.5859523809524
         Else (feature 0 > 20.67)
          If (feature 3 <= 82.22)
           If (feature 0 <= 21.43)
            Predict: 448.0158333333334
           Else (feature 0 > 21.43)
            Predict: 445.28895652173924
          Else (feature 3 > 82.22)
           If (feature 1 <= 59.22)
            Predict: 445.6534831460675
           Else (feature 1 > 59.22)
            Predict: 442.84995798319324
      Else (feature 0 > 22.35)
       If (feature 1 <= 64.69)
        If (feature 0 <= 25.04)
         If (feature 2 <= 1005.35)
          If (feature 2 <= 1002.74)
           If (feature 1 <= 48.98)
            Predict: 443.41079999999994
           Else (feature 1 > 48.98)
            Predict: 444.10875
          Else (feature 2 > 1002.74)
           If (feature 3 <= 76.26)
            Predict: 442.88999999999993
           Else (feature 3 > 76.26)
            Predict: 439.88294871794886
         Else (feature 2 > 1005.35)
          If (feature 1 <= 58.98)
           If (feature 1 <= 47.43)
            Predict: 448.1275
           Else (feature 1 > 47.43)
            Predict: 444.7132006920415
          Else (feature 1 > 58.98)
           If (feature 2 <= 1007.69)
            Predict: 440.33597222222227
           Else (feature 2 > 1007.69)
            Predict: 442.1212967581046
        Else (feature 0 > 25.04)
         If (feature 2 <= 1009.96)
          If (feature 0 <= 28.47)
           If (feature 3 <= 47.94)
            Predict: 441.3982258064516
           Else (feature 3 > 47.94)
            Predict: 439.6394550810014
          Else (feature 0 > 28.47)
           If (feature 2 <= 1001.96)
            Predict: 446.51
           Else (feature 2 > 1001.96)
            Predict: 437.3689130434783
         Else (feature 2 > 1009.96)
          If (feature 3 <= 61.6)
           If (feature 2 <= 1010.74)
            Predict: 441.21920000000006
           Else (feature 2 > 1010.74)
            Predict: 444.0341558441559
          Else (feature 3 > 61.6)
           If (feature 0 <= 26.41)
            Predict: 441.8853284671533
           Else (feature 0 > 26.41)
            Predict: 438.6355384615385
       Else (feature 1 > 64.69)
        If (feature 0 <= 25.77)
         If (feature 3 <= 78.2)
          If (feature 1 <= 65.48)
           If (feature 3 <= 41.26)
            Predict: 446.23
           Else (feature 3 > 41.26)
            Predict: 453.2244444444445
          Else (feature 1 > 65.48)
           If (feature 3 <= 55.72)
            Predict: 445.9971428571429
           Else (feature 3 > 55.72)
            Predict: 439.40909313725496
         Else (feature 3 > 78.2)
          If (feature 2 <= 1007.09)
           If (feature 1 <= 71.25)
            Predict: 435.6367659574468
           Else (feature 1 > 71.25)
            Predict: 433.8272282608696
          Else (feature 2 > 1007.09)
           If (feature 1 <= 69.98)
            Predict: 440.155
           Else (feature 1 > 69.98)
            Predict: 437.32557798165107
        Else (feature 0 > 25.77)
         If (feature 2 <= 1009.36)
          If (feature 0 <= 27.97)
           If (feature 3 <= 61.6)
            Predict: 436.2350828729282
           Else (feature 3 > 61.6)
            Predict: 433.1462187500001
          Else (feature 0 > 27.97)
           If (feature 2 <= 1004.92)
            Predict: 431.43103614457834
           Else (feature 2 > 1004.92)
            Predict: 432.7278949950933
         Else (feature 2 > 1009.36)
          If (feature 1 <= 67.98)
           If (feature 1 <= 65.48)
            Predict: 442.60536585365855
           Else (feature 1 > 65.48)
            Predict: 438.44726829268296
          Else (feature 1 > 67.98)
           If (feature 0 <= 29.87)
            Predict: 435.5630651731161
           Else (feature 0 > 29.87)
            Predict: 433.860874524715
     Else (feature 2 > 1011.53)
      If (feature 3 <= 62.13)
       If (feature 2 <= 1019.38)
        If (feature 0 <= 26.41)
         If (feature 1 <= 55.5)
          If (feature 0 <= 22.11)
           If (feature 2 <= 1014.96)
            Predict: 454.70684210526315
           Else (feature 2 > 1014.96)
            Predict: 458.704375
          Else (feature 0 > 22.11)
           If (feature 2 <= 1013.88)
            Predict: 449.4024264705883
           Else (feature 2 > 1013.88)
            Predict: 452.96183333333346
         Else (feature 1 > 55.5)
          If (feature 0 <= 23.03)
           If (feature 1 <= 59.22)
            Predict: 451.51435483870966
           Else (feature 1 > 59.22)
            Predict: 449.654049586777
          Else (feature 0 > 23.03)
           If (feature 2 <= 1018.8)
            Predict: 443.7353586497889
           Else (feature 2 > 1018.8)
            Predict: 438.53272727272775
        Else (feature 0 > 26.41)
         If (feature 0 <= 29.56)
          If (feature 0 <= 27.65)
           If (feature 1 <= 65.94)
            Predict: 442.73093833780155
           Else (feature 1 > 65.94)
            Predict: 437.93620689655165
          Else (feature 0 > 27.65)
           If (feature 2 <= 1017.66)
            Predict: 439.56028828828835
           Else (feature 2 > 1017.66)
            Predict: 437.28602739726034
         Else (feature 0 > 29.56)
          If (feature 0 <= 31.68)
           If (feature 2 <= 1014.58)
            Predict: 436.888025751073
           Else (feature 2 > 1014.58)
            Predict: 433.3449112426034
          Else (feature 0 > 31.68)
           If (feature 1 <= 73.21)
            Predict: 433.30088435374154
           Else (feature 1 > 73.21)
            Predict: 429.0460215053764
       Else (feature 2 > 1019.38)
        If (feature 0 <= 21.16)
         If (feature 2 <= 1025.26)
          If (feature 2 <= 1020.33)
           If (feature 3 <= 60.31)
            Predict: 457.5122222222223
           Else (feature 3 > 60.31)
            Predict: 452.8533333333332
          Else (feature 2 > 1020.33)
           If (feature 3 <= 60.31)
            Predict: 457.7945000000001
           Else (feature 3 > 60.31)
            Predict: 461.9299999999999
         Else (feature 2 > 1025.26)
          If (feature 3 <= 52.54)
           Predict: 461.57
          Else (feature 3 > 52.54)
           If (feature 3 <= 58.12)
            Predict: 463.55000000000007
           Else (feature 3 > 58.12)
            Predict: 465.48
        Else (feature 0 > 21.16)
         If (feature 2 <= 1020.12)
          If (feature 1 <= 61.5)
           Predict: 448.34999999999997
          Else (feature 1 > 61.5)
           If (feature 0 <= 23.25)
            Predict: 447.4866666666667
           Else (feature 0 > 23.25)
            Predict: 443.45
         Else (feature 2 > 1020.12)
          If (feature 2 <= 1020.79)
           If (feature 0 <= 24.23)
            Predict: 449.31625
           Else (feature 0 > 24.23)
            Predict: 446.9834615384615
          Else (feature 2 > 1020.79)
           If (feature 2 <= 1021.63)
            Predict: 450.8615
           Else (feature 2 > 1021.63)
            Predict: 447.8066666666667
      Else (feature 3 > 62.13)
       If (feature 0 <= 20.67)
        If (feature 1 <= 56.86)
         If (feature 0 <= 16.17)
          If (feature 2 <= 1015.15)
           If (feature 2 <= 1013.26)
            Predict: 463.57320754716983
           Else (feature 2 > 1013.26)
            Predict: 460.2414035087719
          Else (feature 2 > 1015.15)
           If (feature 1 <= 49.82)
            Predict: 461.79733333333337
           Else (feature 1 > 49.82)
            Predict: 465.75583617747446
         Else (feature 0 > 16.17)
          If (feature 0 <= 17.79)
           If (feature 3 <= 62.75)
            Predict: 467.23
           Else (feature 3 > 62.75)
            Predict: 458.7721182266013
          Else (feature 0 > 17.79)
           If (feature 2 <= 1022.09)
            Predict: 455.74381093057605
           Else (feature 2 > 1022.09)
            Predict: 463.52333333333564
        Else (feature 1 > 56.86)
         If (feature 1 <= 69.45)
          If (feature 1 <= 67.25)
           If (feature 3 <= 83.75)
            Predict: 452.4200370370371
           Else (feature 3 > 83.75)
            Predict: 450.9132637853949
          Else (feature 1 > 67.25)
           If (feature 2 <= 1012.66)
            Predict: 448.3316666666667
           Else (feature 2 > 1012.66)
            Predict: 444.43263157894734
         Else (feature 1 > 69.45)
          If (feature 3 <= 86.37)
           If (feature 0 <= 14.12)
            Predict: 464.13875
           Else (feature 0 > 14.12)
            Predict: 457.28125000000006
          Else (feature 3 > 86.37)
           If (feature 3 <= 86.64)
            Predict: 474.66
           Else (feature 3 > 86.64)
            Predict: 470.58000000000004
       Else (feature 0 > 20.67)
        If (feature 2 <= 1012.78)
         If (feature 1 <= 68.84)
          If (feature 3 <= 67.26)
           If (feature 0 <= 23.62)
            Predict: 446.8956097560975
           Else (feature 0 > 23.62)
            Predict: 440.88975155279496
          Else (feature 3 > 67.26)
           If (feature 3 <= 69.11)
            Predict: 449.65863636363633
           Else (feature 3 > 69.11)
            Predict: 444.39409090909095
         Else (feature 1 > 68.84)
          If (feature 3 <= 73.56)
           If (feature 1 <= 72.25)
            Predict: 434.84955555555547
           Else (feature 1 > 72.25)
            Predict: 429.14344827586206
          Else (feature 3 > 73.56)
           If (feature 0 <= 25.42)
            Predict: 437.92322147651004
           Else (feature 0 > 25.42)
            Predict: 433.3290816326532
        Else (feature 2 > 1012.78)
         If (feature 3 <= 79.07)
          If (feature 1 <= 66.49)
           If (feature 0 <= 23.03)
            Predict: 449.9904352678571
           Else (feature 0 > 23.03)
            Predict: 445.3361317254177
          Else (feature 1 > 66.49)
           If (feature 1 <= 74.78)
            Predict: 437.0219172932331
           Else (feature 1 > 74.78)
            Predict: 439.8441525423729
         Else (feature 3 > 79.07)
          If (feature 2 <= 1020.54)
           If (feature 1 <= 66.49)
            Predict: 444.7083333333333
           Else (feature 1 > 66.49)
            Predict: 435.87981366459604
          Else (feature 2 > 1020.54)
           Predict: 421.570000000007
  Tree 2 (weight 1.0):
    If (feature 1 <= 46.21)
     If (feature 3 <= 67.26)
      If (feature 0 <= 14.12)
       If (feature 1 <= 41.44)
        If (feature 0 <= 8.62)
         If (feature 1 <= 39.59)
          If (feature 0 <= 6.9)
           If (feature 2 <= 1017.8)
            Predict: 484.33799999999997
           Else (feature 2 > 1017.8)
            Predict: 485.95
          Else (feature 0 > 6.9)
           If (feature 3 <= 62.75)
            Predict: 481.1562068965517
           Else (feature 3 > 62.75)
            Predict: 483.5247368421053
         Else (feature 1 > 39.59)
          If (feature 3 <= 54.96)
           If (feature 2 <= 1015.53)
            Predict: 489.81285714285707
           Else (feature 2 > 1015.53)
            Predict: 488.43499999999995
          Else (feature 3 > 54.96)
           If (feature 3 <= 58.12)
            Predict: 492.45454545454544
           Else (feature 3 > 58.12)
            Predict: 494.79240000000004
        Else (feature 0 > 8.62)
         If (feature 0 <= 11.06)
          If (feature 2 <= 1015.77)
           If (feature 3 <= 58.91)
            Predict: 479.001111111111
           Else (feature 3 > 58.91)
            Predict: 474.18627906976747
          Else (feature 2 > 1015.77)
           If (feature 0 <= 9.73)
            Predict: 481.1575806451614
           Else (feature 0 > 9.73)
            Predict: 477.4327272727272
         Else (feature 0 > 11.06)
          If (feature 2 <= 1019.03)
           If (feature 3 <= 58.91)
            Predict: 469.81087912087924
           Else (feature 3 > 58.91)
            Predict: 473.38855263157905
          Else (feature 2 > 1019.03)
           If (feature 3 <= 61.6)
            Predict: 474.92281249999996
           Else (feature 3 > 61.6)
            Predict: 473.32076923076886
       Else (feature 1 > 41.44)
        If (feature 2 <= 1017.8)
         If (feature 2 <= 1015.15)
          If (feature 0 <= 12.75)
           If (feature 1 <= 41.82)
            Predict: 475.15950000000004
           Else (feature 1 > 41.82)
            Predict: 476.54642857142846
          Else (feature 0 > 12.75)
           If (feature 1 <= 41.82)
            Predict: 465.9651219512195
           Else (feature 1 > 41.82)
            Predict: 471.08789473684203
         Else (feature 2 > 1015.15)
          If (feature 0 <= 12.24)
           If (feature 0 <= 11.7)
            Predict: 467.51
           Else (feature 0 > 11.7)
            Predict: 469.0799999999999
          Else (feature 0 > 12.24)
           If (feature 3 <= 54.15)
            Predict: 466.99000000000007
           Else (feature 3 > 54.15)
            Predict: 464.1708695652174
        Else (feature 2 > 1017.8)
         If (feature 0 <= 12.24)
          If (feature 1 <= 44.06)
           If (feature 2 <= 1020.12)
            Predict: 478.8053658536585
           Else (feature 2 > 1020.12)
            Predict: 473.32777777777767
          Else (feature 1 > 44.06)
           If (feature 3 <= 64.79)
            Predict: 485.01076923076926
           Else (feature 3 > 64.79)
            Predict: 478.4200000000001
         Else (feature 0 > 12.24)
          If (feature 2 <= 1020.12)
           If (feature 1 <= 44.78)
            Predict: 468.86400000000003
           Else (feature 1 > 44.78)
            Predict: 466.51625000000007
          Else (feature 2 > 1020.12)
           If (feature 1 <= 42.04)
            Predict: 473.4313157894737
           Else (feature 1 > 42.04)
            Predict: 468.64961538461523
      Else (feature 0 > 14.12)
       If (feature 1 <= 45.0)
        If (feature 2 <= 1011.87)
         If (feature 3 <= 58.91)
          If (feature 1 <= 43.41)
           If (feature 2 <= 1003.54)
            Predict: 455.17130434782604
           Else (feature 2 > 1003.54)
            Predict: 462.66000000000014
          Else (feature 1 > 43.41)
           If (feature 3 <= 41.26)
            Predict: 462.6596774193548
           Else (feature 3 > 41.26)
            Predict: 445.6382307692307
         Else (feature 3 > 58.91)
          If (feature 0 <= 20.91)
           If (feature 0 <= 17.79)
            Predict: 463.5946296296296
           Else (feature 0 > 17.79)
            Predict: 457.79327272727284
          Else (feature 0 > 20.91)
           If (feature 1 <= 43.41)
            Predict: 438.74
           Else (feature 1 > 43.41)
            Predict: 446.8564705882353
        Else (feature 2 > 1011.87)
         If (feature 3 <= 62.75)
          If (feature 0 <= 16.76)
           If (feature 2 <= 1019.59)
            Predict: 465.91362179487186
           Else (feature 2 > 1019.59)
            Predict: 469.23778947368385
          Else (feature 0 > 16.76)
           If (feature 1 <= 44.89)
            Predict: 462.74411894273123
           Else (feature 1 > 44.89)
            Predict: 468.8852500000001
         Else (feature 3 > 62.75)
          If (feature 2 <= 1012.2)
           If (feature 0 <= 20.1)
            Predict: 455.66
           Else (feature 0 > 20.1)
            Predict: 453.12999999999994
          Else (feature 2 > 1012.2)
           If (feature 1 <= 41.14)
            Predict: 457.87452054794517
           Else (feature 1 > 41.14)
            Predict: 463.3581142857142
       Else (feature 1 > 45.0)
        If (feature 2 <= 1011.01)
         If (feature 3 <= 52.54)
          If (feature 0 <= 24.0)
           Predict: 446.67
          Else (feature 0 > 24.0)
           Predict: 445.84
         Else (feature 3 > 52.54)
          If (feature 0 <= 24.0)
           If (feature 3 <= 60.31)
            Predict: 444.5329411764706
           Else (feature 3 > 60.31)
            Predict: 447.02000000000004
          Else (feature 0 > 24.0)
           If (feature 3 <= 58.12)
            Predict: 442.98
           Else (feature 3 > 58.12)
            Predict: 440.2700000000001
        Else (feature 2 > 1011.01)
         If (feature 2 <= 1012.66)
          If (feature 0 <= 23.03)
           If (feature 3 <= 54.96)
            Predict: 450.4944444444444
           Else (feature 3 > 54.96)
            Predict: 452.1620000000001
          Else (feature 0 > 23.03)
           If (feature 2 <= 1011.39)
            Predict: 450.86
           Else (feature 2 > 1011.39)
            Predict: 454.78499999999997
         Else (feature 2 > 1012.66)
          If (feature 0 <= 16.76)
           If (feature 3 <= 62.75)
            Predict: 457.95200000000006
           Else (feature 3 > 62.75)
            Predict: 460.9100000000001
          Else (feature 0 > 16.76)
           If (feature 3 <= 60.31)
            Predict: 453.53583333333336
           Else (feature 3 > 60.31)
            Predict: 458.7520833333335
     Else (feature 3 > 67.26)
      If (feature 0 <= 11.7)
       If (feature 0 <= 8.62)
        If (feature 2 <= 1021.63)
         If (feature 0 <= 6.9)
          If (feature 3 <= 77.48)
           If (feature 2 <= 1012.66)
            Predict: 491.0745
           Else (feature 2 > 1012.66)
            Predict: 486.4777222222223
          Else (feature 3 > 77.48)
           If (feature 2 <= 1016.49)
            Predict: 484.9474570446736
           Else (feature 2 > 1016.49)
            Predict: 486.77005970149213
         Else (feature 0 > 6.9)
          If (feature 3 <= 72.73)
           If (feature 1 <= 38.28)
            Predict: 479.18
           Else (feature 1 > 38.28)
            Predict: 486.58886524822685
          Else (feature 3 > 72.73)
           If (feature 1 <= 42.85)
            Predict: 481.7665073529411
           Else (feature 1 > 42.85)
            Predict: 484.2477064220183
        Else (feature 2 > 1021.63)
         If (feature 3 <= 89.03)
          If (feature 0 <= 5.84)
           If (feature 2 <= 1025.26)
            Predict: 487.5895652173913
           Else (feature 2 > 1025.26)
            Predict: 489.5949999999999
          Else (feature 0 > 5.84)
           If (feature 1 <= 39.3)
            Predict: 485.25747126436784
           Else (feature 1 > 39.3)
            Predict: 481.38758169934636
         Else (feature 3 > 89.03)
          If (feature 2 <= 1022.09)
           If (feature 0 <= 6.9)
            Predict: 472.663
           Else (feature 0 > 6.9)
            Predict: 448.9700000000001
          Else (feature 2 > 1022.09)
           If (feature 3 <= 95.44)
            Predict: 481.43980392156857
           Else (feature 3 > 95.44)
            Predict: 477.01816793893124
       Else (feature 0 > 8.62)
        If (feature 2 <= 1022.89)
         If (feature 3 <= 92.86)
          If (feature 1 <= 44.06)
           If (feature 3 <= 69.65)
            Predict: 475.3288125
           Else (feature 3 > 69.65)
            Predict: 477.2524545900836
          Else (feature 1 > 44.06)
           If (feature 2 <= 1017.98)
            Predict: 477.4921428571429
           Else (feature 2 > 1017.98)
            Predict: 473.2131632653061
         Else (feature 3 > 92.86)
          If (feature 2 <= 1020.79)
           If (feature 0 <= 9.73)
            Predict: 477.991
           Else (feature 0 > 9.73)
            Predict: 472.36245495495496
          Else (feature 2 > 1020.79)
           If (feature 3 <= 94.53)
            Predict: 465.112380952381
           Else (feature 3 > 94.53)
            Predict: 469.83359375
        Else (feature 2 > 1022.89)
         If (feature 3 <= 87.67)
          If (feature 0 <= 11.43)
           If (feature 2 <= 1026.3)
            Predict: 480.63457692307696
           Else (feature 2 > 1026.3)
            Predict: 477.9287341772153
          Else (feature 0 > 11.43)
           If (feature 3 <= 78.62)
            Predict: 478.3446153846154
           Else (feature 3 > 78.62)
            Predict: 473.50759999999997
         Else (feature 3 > 87.67)
          If (feature 2 <= 1023.45)
           If (feature 1 <= 43.67)
            Predict: 472.82428571428574
           Else (feature 1 > 43.67)
            Predict: 478.18548387096763
          Else (feature 2 > 1023.45)
           If (feature 0 <= 9.05)
            Predict: 478.1162962962963
           Else (feature 0 > 9.05)
            Predict: 472.21335877862595
      Else (feature 0 > 11.7)
       If (feature 2 <= 1012.34)
        If (feature 3 <= 75.88)
         If (feature 0 <= 18.4)
          If (feature 3 <= 70.85)
           If (feature 3 <= 68.23)
            Predict: 470.50624999999997
           Else (feature 3 > 68.23)
            Predict: 465.8937168141593
          Else (feature 3 > 70.85)
           If (feature 1 <= 43.41)
            Predict: 463.57528776978404
           Else (feature 1 > 43.41)
            Predict: 457.2351282051278
         Else (feature 0 > 18.4)
          If (feature 2 <= 1007.5)
           If (feature 2 <= 1005.7)
            Predict: 445.09000000000003
           Else (feature 2 > 1005.7)
            Predict: 447.58088235294105
          Else (feature 2 > 1007.5)
           If (feature 0 <= 22.35)
            Predict: 452.82608695652175
           Else (feature 0 > 22.35)
            Predict: 439.875
        Else (feature 3 > 75.88)
         If (feature 0 <= 16.5)
          If (feature 1 <= 41.03)
           If (feature 1 <= 40.03)
            Predict: 468.0629394812679
           Else (feature 1 > 40.03)
            Predict: 470.6617258883248
          Else (feature 1 > 41.03)
           If (feature 3 <= 88.5)
            Predict: 463.4063498920087
           Else (feature 3 > 88.5)
            Predict: 467.58658878504684
         Else (feature 0 > 16.5)
          If (feature 2 <= 1011.72)
           If (feature 1 <= 41.44)
            Predict: 463.0000970873786
           Else (feature 1 > 41.44)
            Predict: 454.34887499999996
          Else (feature 2 > 1011.72)
           If (feature 3 <= 85.23)
            Predict: 457.7154838709678
           Else (feature 3 > 85.23)
            Predict: 441.78217391304355
       Else (feature 2 > 1012.34)
        If (feature 0 <= 14.12)
         If (feature 1 <= 40.75)
          If (feature 2 <= 1020.79)
           If (feature 2 <= 1017.08)
            Predict: 471.77417241379305
           Else (feature 2 > 1017.08)
            Predict: 468.9816842105264
          Else (feature 2 > 1020.79)
           If (feature 1 <= 40.62)
            Predict: 472.24888888888887
           Else (feature 1 > 40.62)
            Predict: 475.9982608695652
         Else (feature 1 > 40.75)
          If (feature 2 <= 1017.29)
           If (feature 3 <= 74.45)
            Predict: 472.1107142857143
           Else (feature 3 > 74.45)
            Predict: 469.3282592592594
          Else (feature 2 > 1017.29)
           If (feature 3 <= 70.09)
            Predict: 470.53959183673464
           Else (feature 3 > 70.09)
            Predict: 467.1726519916142
        Else (feature 0 > 14.12)
         If (feature 0 <= 16.76)
          If (feature 2 <= 1016.49)
           If (feature 1 <= 44.89)
            Predict: 466.53599675850893
           Else (feature 1 > 44.89)
            Predict: 463.1094623655913
          Else (feature 2 > 1016.49)
           If (feature 3 <= 72.73)
            Predict: 465.416201923077
           Else (feature 3 > 72.73)
            Predict: 463.37810249307483
         Else (feature 0 > 16.76)
          If (feature 3 <= 80.67)
           If (feature 1 <= 43.41)
            Predict: 462.22247126436775
           Else (feature 1 > 43.41)
            Predict: 458.27885375494066
          Else (feature 3 > 80.67)
           If (feature 0 <= 20.91)
            Predict: 457.6439130434783
           Else (feature 0 > 20.91)
            Predict: 445.28499999999985
    Else (feature 1 > 46.21)
     If (feature 0 <= 22.11)
      If (feature 1 <= 56.86)
       If (feature 2 <= 1011.53)
        If (feature 2 <= 1008.24)
         If (feature 0 <= 16.17)
          If (feature 1 <= 48.98)
           If (feature 0 <= 15.84)
            Predict: 462.2157142857143
           Else (feature 0 > 15.84)
            Predict: 458.1800000000003
          Else (feature 1 > 48.98)
           If (feature 2 <= 1007.09)
            Predict: 463.2878947368421
           Else (feature 2 > 1007.09)
            Predict: 467.38466666666676
         Else (feature 0 > 16.17)
          If (feature 3 <= 86.02)
           If (feature 3 <= 79.49)
            Predict: 451.17722627737226
           Else (feature 3 > 79.49)
            Predict: 453.9028571428571
          Else (feature 3 > 86.02)
           If (feature 3 <= 93.67)
            Predict: 447.35752
           Else (feature 3 > 93.67)
            Predict: 450.56196969696964
        Else (feature 2 > 1008.24)
         If (feature 2 <= 1009.81)
          If (feature 3 <= 94.53)
           If (feature 0 <= 14.57)
            Predict: 456.61848484848485
           Else (feature 0 > 14.57)
            Predict: 446.7690983606556
          Else (feature 3 > 94.53)
           If (feature 2 <= 1008.44)
            Predict: 468.2200000000001
           Else (feature 2 > 1008.44)
            Predict: 452.16842105263163
         Else (feature 2 > 1009.81)
          If (feature 0 <= 14.77)
           If (feature 2 <= 1010.11)
            Predict: 465.63
           Else (feature 2 > 1010.11)
            Predict: 461.80999999999995
          Else (feature 0 > 14.77)
           If (feature 2 <= 1010.74)
            Predict: 452.5711851851852
           Else (feature 2 > 1010.74)
            Predict: 449.50879518072287
       Else (feature 2 > 1011.53)
        If (feature 2 <= 1021.63)
         If (feature 0 <= 16.17)
          If (feature 2 <= 1021.15)
           If (feature 1 <= 53.82)
            Predict: 463.44293413173654
           Else (feature 1 > 53.82)
            Predict: 465.72083333333336
          Else (feature 2 > 1021.15)
           Predict: 453.989999999999
         Else (feature 0 > 16.17)
          If (feature 2 <= 1012.91)
           If (feature 3 <= 84.46)
            Predict: 455.56371621621605
           Else (feature 3 > 84.46)
            Predict: 453.36722222222187
          Else (feature 2 > 1012.91)
           If (feature 2 <= 1018.8)
            Predict: 456.93921316165944
           Else (feature 2 > 1018.8)
            Predict: 455.6219704433498
        Else (feature 2 > 1021.63)
         If (feature 3 <= 77.09)
          If (feature 0 <= 11.43)
           If (feature 0 <= 10.29)
            Predict: 471.634
           Else (feature 0 > 10.29)
            Predict: 468.52437499999985
          Else (feature 0 > 11.43)
           If (feature 3 <= 60.31)
            Predict: 460.12777777777774
           Else (feature 3 > 60.31)
            Predict: 462.4864835164834
         Else (feature 3 > 77.09)
          If (feature 1 <= 51.95)
           If (feature 3 <= 81.43)
            Predict: 447.7223529411765
           Else (feature 3 > 81.43)
            Predict: 459.7130000000001
          Else (feature 1 > 51.95)
           If (feature 3 <= 85.23)
            Predict: 469.11571428571426
           Else (feature 3 > 85.23)
            Predict: 473.45000000000005
      Else (feature 1 > 56.86)
       If (feature 2 <= 1011.87)
        If (feature 2 <= 1009.55)
         If (feature 1 <= 68.51)
          If (feature 3 <= 78.62)
           If (feature 2 <= 1008.61)
            Predict: 447.0594285714286
           Else (feature 2 > 1008.61)
            Predict: 452.382105263158
          Else (feature 3 > 78.62)
           If (feature 3 <= 80.67)
            Predict: 440.703125
           Else (feature 3 > 80.67)
            Predict: 445.8496226415095
         Else (feature 1 > 68.51)
          If (feature 1 <= 75.33)
           If (feature 1 <= 71.85)
            Predict: 441.4295
           Else (feature 1 > 71.85)
            Predict: 443.66239999999993
          Else (feature 1 > 75.33)
           If (feature 1 <= 77.17)
            Predict: 438.41
           Else (feature 1 > 77.17)
            Predict: 435.13999999999993
        Else (feature 2 > 1009.55)
         If (feature 3 <= 95.44)
          If (feature 3 <= 82.96)
           If (feature 1 <= 67.25)
            Predict: 447.9317159763314
           Else (feature 1 > 67.25)
            Predict: 443.09465517241364
          Else (feature 3 > 82.96)
           If (feature 2 <= 1011.01)
            Predict: 449.47295698924734
           Else (feature 2 > 1011.01)
            Predict: 446.7348888888888
         Else (feature 3 > 95.44)
          If (feature 2 <= 1010.58)
           If (feature 2 <= 1010.24)
            Predict: 444.57399999999996
           Else (feature 2 > 1010.24)
            Predict: 441.65157894736836
          Else (feature 2 > 1010.58)
           If (feature 1 <= 63.47)
            Predict: 445.8866666666666
           Else (feature 1 > 63.47)
            Predict: 447.09
       Else (feature 2 > 1011.87)
        If (feature 2 <= 1019.38)
         If (feature 0 <= 19.19)
          If (feature 0 <= 11.95)
           If (feature 3 <= 75.88)
            Predict: 466.56
           Else (feature 3 > 75.88)
            Predict: 474.6600000000001
          Else (feature 0 > 11.95)
           If (feature 0 <= 17.44)
            Predict: 455.2577528089888
           Else (feature 0 > 17.44)
            Predict: 451.85208053691275
         Else (feature 0 > 19.19)
          If (feature 3 <= 79.49)
           If (feature 0 <= 21.43)
            Predict: 450.6943203883496
           Else (feature 0 > 21.43)
            Predict: 448.503862275449
          Else (feature 3 > 79.49)
           If (feature 1 <= 66.56)
            Predict: 447.47114490160993
           Else (feature 1 > 66.56)
            Predict: 442.37192307692357
        Else (feature 2 > 1019.38)
         If (feature 0 <= 16.5)
          If (feature 0 <= 13.32)
           If (feature 3 <= 86.37)
            Predict: 463.49923076923073
           Else (feature 3 > 86.37)
            Predict: 469.64000000000004
          Else (feature 0 > 13.32)
           If (feature 3 <= 74.86)
            Predict: 456.71666666666675
           Else (feature 3 > 74.86)
            Predict: 458.79394736842113
         Else (feature 0 > 16.5)
          If (feature 0 <= 19.82)
           If (feature 3 <= 83.31)
            Predict: 454.14007692307695
           Else (feature 3 > 83.31)
            Predict: 451.22549019607845
          Else (feature 0 > 19.82)
           If (feature 2 <= 1021.15)
            Predict: 450.2997142857143
           Else (feature 2 > 1021.15)
            Predict: 454.6315384615384
     Else (feature 0 > 22.11)
      If (feature 2 <= 1011.39)
       If (feature 2 <= 1008.81)
        If (feature 0 <= 26.41)
         If (feature 1 <= 64.69)
          If (feature 1 <= 57.32)
           If (feature 2 <= 1003.99)
            Predict: 441.74728323699424
           Else (feature 2 > 1003.99)
            Predict: 444.04729016786564
          Else (feature 1 > 57.32)
           If (feature 1 <= 61.02)
            Predict: 439.8457768924302
           Else (feature 1 > 61.02)
            Predict: 443.14812500000016
         Else (feature 1 > 64.69)
          If (feature 2 <= 1005.35)
           If (feature 3 <= 74.86)
            Predict: 437.9051162790697
           Else (feature 3 > 74.86)
            Predict: 433.5106642066422
          Else (feature 2 > 1005.35)
           If (feature 1 <= 68.84)
            Predict: 441.0317877094972
           Else (feature 1 > 68.84)
            Predict: 436.864451697128
        Else (feature 0 > 26.41)
         If (feature 2 <= 1001.96)
          If (feature 1 <= 58.98)
           If (feature 0 <= 26.8)
            Predict: 445.76000000000005
           Else (feature 0 > 26.8)
            Predict: 446.51
          Else (feature 1 > 58.98)
           If (feature 3 <= 65.32)
            Predict: 429.8736842105263
           Else (feature 3 > 65.32)
            Predict: 431.5915736040608
         Else (feature 2 > 1001.96)
          If (feature 3 <= 52.54)
           If (feature 2 <= 1008.44)
            Predict: 434.15323337679274
           Else (feature 2 > 1008.44)
            Predict: 437.087222222221
          Else (feature 3 > 52.54)
           If (feature 1 <= 64.69)
            Predict: 438.3422482435596
           Else (feature 1 > 64.69)
            Predict: 432.71465720081125
       Else (feature 2 > 1008.81)
        If (feature 3 <= 70.09)
         If (feature 2 <= 1010.89)
          If (feature 1 <= 65.94)
           If (feature 0 <= 26.19)
            Predict: 443.5007650273224
           Else (feature 0 > 26.19)
            Predict: 439.38018587360597
          Else (feature 1 > 65.94)
           If (feature 3 <= 41.26)
            Predict: 431.10696428571435
           Else (feature 3 > 41.26)
            Predict: 435.6267979197621
         Else (feature 2 > 1010.89)
          If (feature 1 <= 69.75)
           If (feature 3 <= 51.47)
            Predict: 434.7481538461538
           Else (feature 3 > 51.47)
            Predict: 441.86705882352953
          Else (feature 1 > 69.75)
           If (feature 3 <= 47.94)
            Predict: 444.03000000000003
           Else (feature 3 > 47.94)
            Predict: 434.6875000000001
        Else (feature 3 > 70.09)
         If (feature 0 <= 25.04)
          If (feature 1 <= 59.57)
           If (feature 2 <= 1010.89)
            Predict: 443.9065271966528
           Else (feature 2 > 1010.89)
            Predict: 446.31985714285713
          Else (feature 1 > 59.57)
           If (feature 2 <= 1010.74)
            Predict: 440.30882352941165
           Else (feature 2 > 1010.74)
            Predict: 437.50249999999994
         Else (feature 0 > 25.04)
          If (feature 3 <= 87.29)
           If (feature 1 <= 67.98)
            Predict: 440.3491588785047
           Else (feature 1 > 67.98)
            Predict: 434.8209523809525
          Else (feature 3 > 87.29)
           If (feature 0 <= 26.41)
            Predict: 433.75520833333326
           Else (feature 0 > 26.41)
            Predict: 431.15200000000004
      Else (feature 2 > 1011.39)
       If (feature 0 <= 26.41)
        If (feature 1 <= 65.94)
         If (feature 0 <= 24.23)
          If (feature 2 <= 1020.33)
           If (feature 1 <= 55.5)
            Predict: 450.3139926739928
           Else (feature 1 > 55.5)
            Predict: 445.55634645669295
          Else (feature 2 > 1020.33)
           If (feature 3 <= 68.23)
            Predict: 449.38120000000004
           Else (feature 3 > 68.23)
            Predict: 452.6932000000002
         Else (feature 0 > 24.23)
          If (feature 3 <= 69.65)
           If (feature 2 <= 1017.46)
            Predict: 445.7106226053638
           Else (feature 2 > 1017.46)
            Predict: 442.8840517241386
          Else (feature 3 > 69.65)
           If (feature 1 <= 58.16)
            Predict: 445.58962962962954
           Else (feature 1 > 58.16)
            Predict: 441.5227627627628
        Else (feature 1 > 65.94)
         If (feature 2 <= 1020.33)
          If (feature 3 <= 72.31)
           If (feature 2 <= 1014.05)
            Predict: 439.6923478260869
           Else (feature 2 > 1014.05)
            Predict: 443.3268874172185
          Else (feature 3 > 72.31)
           If (feature 2 <= 1018.51)
            Predict: 437.11473282442756
           Else (feature 2 > 1018.51)
            Predict: 440.52777777777777
         Else (feature 2 > 1020.33)
          Predict: 421.5700000000005
       Else (feature 0 > 26.41)
        If (feature 1 <= 66.49)
         If (feature 1 <= 51.95)
          If (feature 3 <= 53.32)
           If (feature 0 <= 26.59)
            Predict: 439.54
           Else (feature 0 > 26.59)
            Predict: 449.5725806451613
          Else (feature 3 > 53.32)
           If (feature 0 <= 26.98)
            Predict: 437.35
           Else (feature 0 > 26.98)
            Predict: 439.8
         Else (feature 1 > 51.95)
          If (feature 0 <= 27.22)
           If (feature 2 <= 1012.49)
            Predict: 444.5124107142857
           Else (feature 2 > 1012.49)
            Predict: 441.7308540925267
          Else (feature 0 > 27.22)
           If (feature 0 <= 29.56)
            Predict: 440.81327416173576
           Else (feature 0 > 29.56)
            Predict: 439.2465873015871
        Else (feature 1 > 66.49)
         If (feature 2 <= 1016.65)
          If (feature 0 <= 29.24)
           If (feature 3 <= 66.28)
            Predict: 436.8996437659033
           Else (feature 3 > 66.28)
            Predict: 432.2709183673473
          Else (feature 0 > 29.24)
           If (feature 1 <= 67.71)
            Predict: 435.1827272727273
           Else (feature 1 > 67.71)
            Predict: 431.68061386138606
         Else (feature 2 > 1016.65)
          If (feature 2 <= 1017.46)
           If (feature 0 <= 27.44)
            Predict: 438.30703703703705
           Else (feature 0 > 27.44)
            Predict: 443.4441379310345
          Else (feature 2 > 1017.46)
           If (feature 1 <= 67.25)
            Predict: 434.3713043478262
           Else (feature 1 > 67.25)
            Predict: 438.6441333333333
  Tree 3 (weight 1.0):
    If (feature 0 <= 17.79)
     If (feature 2 <= 1018.51)
      If (feature 2 <= 1010.42)
       If (feature 0 <= 11.95)
        If (feature 3 <= 97.55)
         If (feature 1 <= 39.13)
          If (feature 2 <= 1008.81)
           If (feature 1 <= 35.79)
            Predict: 470.4825
           Else (feature 1 > 35.79)
            Predict: 472.99342105263156
          Else (feature 2 > 1008.81)
           If (feature 0 <= 8.62)
            Predict: 479.7361538461538
           Else (feature 0 > 8.62)
            Predict: 471.9871428571428
         Else (feature 1 > 39.13)
          If (feature 1 <= 42.85)
           If (feature 0 <= 9.05)
            Predict: 484.9203367003367
           Else (feature 0 > 9.05)
            Predict: 476.02677570093465
          Else (feature 1 > 42.85)
           If (feature 3 <= 91.47)
            Predict: 473.30315789473684
           Else (feature 3 > 91.47)
            Predict: 478.04999999999995
        Else (feature 3 > 97.55)
         If (feature 0 <= 8.22)
          If (feature 2 <= 1000.73)
           If (feature 3 <= 99.16)
            Predict: 489.23499999999996
           Else (feature 3 > 99.16)
            Predict: 489.37999999999994
          Else (feature 2 > 1000.73)
           If (feature 2 <= 1007.69)
            Predict: 483.2625
           Else (feature 2 > 1007.69)
            Predict: 480.31692307692316
         Else (feature 0 > 8.22)
          If (feature 2 <= 1008.99)
           If (feature 2 <= 1005.7)
            Predict: 473.3113953488372
           Else (feature 2 > 1005.7)
            Predict: 474.19613636363647
          Else (feature 2 > 1008.99)
           If (feature 0 <= 11.06)
            Predict: 469.92
           Else (feature 0 > 11.06)
            Predict: 467.2666666666667
       Else (feature 0 > 11.95)
        If (feature 3 <= 99.16)
         If (feature 0 <= 15.56)
          If (feature 0 <= 13.54)
           If (feature 3 <= 70.85)
            Predict: 471.91415094339624
           Else (feature 3 > 70.85)
            Predict: 468.4911068702291
          Else (feature 0 > 13.54)
           If (feature 0 <= 14.36)
            Predict: 466.5051308900523
           Else (feature 0 > 14.36)
            Predict: 464.9729662921349
         Else (feature 0 > 15.56)
          If (feature 3 <= 84.46)
           If (feature 3 <= 58.91)
            Predict: 457.6075000000001
           Else (feature 3 > 58.91)
            Predict: 461.7220507399576
          Else (feature 3 > 84.46)
           If (feature 2 <= 1008.24)
            Predict: 459.77659090909094
           Else (feature 2 > 1008.24)
            Predict: 454.7419767441861
        Else (feature 3 > 99.16)
         If (feature 1 <= 48.41)
          If (feature 2 <= 1002.74)
           Predict: 454.02
          Else (feature 2 > 1002.74)
           If (feature 2 <= 1009.21)
            Predict: 464.14
           Else (feature 2 > 1009.21)
            Predict: 465.63
         Else (feature 1 > 48.41)
          If (feature 0 <= 16.5)
           Predict: 449.7
          Else (feature 0 > 16.5)
           If (feature 2 <= 1004.92)
            Predict: 451.38800000000003
           Else (feature 2 > 1004.92)
            Predict: 453.33040000000005
      Else (feature 2 > 1010.42)
       If (feature 0 <= 11.7)
        If (feature 3 <= 95.44)
         If (feature 2 <= 1012.49)
          If (feature 1 <= 40.43)
           If (feature 3 <= 91.47)
            Predict: 482.29112179487174
           Else (feature 3 > 91.47)
            Predict: 488.2365853658536
          Else (feature 1 > 40.43)
           If (feature 1 <= 43.41)
            Predict: 479.94666666666666
           Else (feature 1 > 43.41)
            Predict: 476.1482857142862
         Else (feature 2 > 1012.49)
          If (feature 3 <= 54.96)
           If (feature 0 <= 8.22)
            Predict: 489.14349999999996
           Else (feature 0 > 8.22)
            Predict: 471.46999999999935
          Else (feature 3 > 54.96)
           If (feature 1 <= 35.79)
            Predict: 485.1625316455696
           Else (feature 1 > 35.79)
            Predict: 479.6994073705178
        Else (feature 3 > 95.44)
         If (feature 2 <= 1016.49)
          If (feature 2 <= 1015.99)
           If (feature 1 <= 41.31)
            Predict: 479.9492727272727
           Else (feature 1 > 41.31)
            Predict: 472.10707317073167
          Else (feature 2 > 1015.99)
           Predict: 485.72999999999956
         Else (feature 2 > 1016.49)
          If (feature 0 <= 7.41)
           Predict: 435.58
          Else (feature 0 > 7.41)
           If (feature 2 <= 1017.98)
            Predict: 466.21027027027026
           Else (feature 2 > 1017.98)
            Predict: 470.09000000000015
       Else (feature 0 > 11.7)
        If (feature 2 <= 1013.16)
         If (feature 1 <= 43.67)
          If (feature 1 <= 41.54)
           If (feature 3 <= 92.04)
            Predict: 470.9217090909091
           Else (feature 3 > 92.04)
            Predict: 464.54545454545456
          Else (feature 1 > 41.54)
           If (feature 2 <= 1012.2)
            Predict: 464.46709090909087
           Else (feature 2 > 1012.2)
            Predict: 470.0426490066224
         Else (feature 1 > 43.67)
          If (feature 2 <= 1012.78)
           If (feature 1 <= 52.75)
            Predict: 460.8820441988951
           Else (feature 1 > 52.75)
            Predict: 457.11571428571466
          Else (feature 2 > 1012.78)
           If (feature 1 <= 45.51)
            Predict: 467.1036666666667
           Else (feature 1 > 45.51)
            Predict: 461.32923076923066
        Else (feature 2 > 1013.16)
         If (feature 1 <= 44.89)
          If (feature 2 <= 1017.29)
           If (feature 0 <= 13.76)
            Predict: 471.0238985148515
           Else (feature 0 > 13.76)
            Predict: 465.8016377816292
          Else (feature 2 > 1017.29)
           If (feature 3 <= 77.09)
            Predict: 464.3603361344537
           Else (feature 3 > 77.09)
            Predict: 465.91150000000016
         Else (feature 1 > 44.89)
          If (feature 2 <= 1014.58)
           If (feature 0 <= 15.27)
            Predict: 461.25316326530617
           Else (feature 0 > 15.27)
            Predict: 457.03968750000007
          Else (feature 2 > 1014.58)
           If (feature 1 <= 55.5)
            Predict: 463.23579567779956
           Else (feature 1 > 55.5)
            Predict: 454.1879090909087
     Else (feature 2 > 1018.51)
      If (feature 1 <= 41.54)
       If (feature 1 <= 40.69)
        If (feature 3 <= 62.75)
         If (feature 2 <= 1021.15)
          If (feature 2 <= 1020.12)
           If (feature 2 <= 1018.8)
            Predict: 477.27785714285716
           Else (feature 2 > 1018.8)
            Predict: 470.05591836734703
          Else (feature 2 > 1020.12)
           If (feature 3 <= 54.15)
            Predict: 470.22
           Else (feature 3 > 54.15)
            Predict: 481.14571428571435
         Else (feature 2 > 1021.15)
          If (feature 2 <= 1023.45)
           If (feature 0 <= 12.75)
            Predict: 470.24
           Else (feature 0 > 12.75)
            Predict: 469.33666666666664
          Else (feature 2 > 1023.45)
           Predict: 464.02999999999986
        Else (feature 3 > 62.75)
         If (feature 1 <= 35.79)
          If (feature 0 <= 9.42)
           If (feature 2 <= 1018.8)
            Predict: 488.6573333333334
           Else (feature 2 > 1018.8)
            Predict: 485.25725190839694
          Else (feature 0 > 9.42)
           If (feature 0 <= 10.75)
            Predict: 477.93437499999993
           Else (feature 0 > 10.75)
            Predict: 472.0031818181817
         Else (feature 1 > 35.79)
          If (feature 3 <= 95.44)
           If (feature 3 <= 66.75)
            Predict: 483.8129761904761
           Else (feature 3 > 66.75)
            Predict: 479.0529555997346
          Else (feature 3 > 95.44)
           If (feature 2 <= 1022.89)
            Predict: 477.2161290322581
           Else (feature 2 > 1022.89)
            Predict: 472.9141891891893
       Else (feature 1 > 40.69)
        If (feature 3 <= 78.62)
         If (feature 0 <= 12.75)
          If (feature 0 <= 9.73)
           If (feature 0 <= 9.42)
            Predict: 485.7120895522388
           Else (feature 0 > 9.42)
            Predict: 481.3591666666668
          Else (feature 0 > 9.73)
           If (feature 2 <= 1019.03)
            Predict: 449.5
           Else (feature 2 > 1019.03)
            Predict: 476.56283489096575
         Else (feature 0 > 12.75)
          If (feature 0 <= 14.94)
           If (feature 0 <= 13.76)
            Predict: 469.6520512820513
           Else (feature 0 > 13.76)
            Predict: 465.8204285714286
          Else (feature 0 > 14.94)
           Predict: 457.79076923077025
        Else (feature 3 > 78.62)
         If (feature 1 <= 41.31)
          If (feature 0 <= 9.05)
           If (feature 3 <= 92.04)
            Predict: 483.47488165680477
           Else (feature 3 > 92.04)
            Predict: 476.3541496598637
          Else (feature 0 > 9.05)
           If (feature 0 <= 12.24)
            Predict: 472.82068181818187
           Else (feature 0 > 12.24)
            Predict: 464.57639999999986
         Else (feature 1 > 41.31)
          If (feature 3 <= 90.93)
           If (feature 0 <= 8.22)
            Predict: 490.0349999999999
           Else (feature 0 > 8.22)
            Predict: 477.99597765363126
          Else (feature 3 > 90.93)
           If (feature 3 <= 95.44)
            Predict: 469.0822222222222
           Else (feature 3 > 95.44)
            Predict: 472.09769230769234
      Else (feature 1 > 41.54)
       If (feature 2 <= 1021.63)
        If (feature 1 <= 46.21)
         If (feature 0 <= 11.7)
          If (feature 3 <= 85.54)
           If (feature 3 <= 52.54)
            Predict: 472.342
           Else (feature 3 > 52.54)
            Predict: 481.5673202614378
          Else (feature 3 > 85.54)
           If (feature 2 <= 1020.79)
            Predict: 472.46
           Else (feature 2 > 1020.79)
            Predict: 467.80617647058835
         Else (feature 0 > 11.7)
          If (feature 3 <= 51.47)
           If (feature 0 <= 12.24)
            Predict: 482.98999999999995
           Else (feature 0 > 12.24)
            Predict: 461.37
          Else (feature 3 > 51.47)
           If (feature 3 <= 84.16)
            Predict: 463.60522026431727
           Else (feature 3 > 84.16)
            Predict: 465.29579881656815
        Else (feature 1 > 46.21)
         If (feature 1 <= 55.5)
          If (feature 2 <= 1020.79)
           If (feature 2 <= 1020.33)
            Predict: 462.6111764705882
           Else (feature 2 > 1020.33)
            Predict: 465.2728571428571
          Else (feature 2 > 1020.79)
           If (feature 3 <= 63.73)
            Predict: 454.41
           Else (feature 3 > 63.73)
            Predict: 459.33
         Else (feature 1 > 55.5)
          If (feature 1 <= 65.48)
           If (feature 0 <= 16.5)
            Predict: 458.5191666666667
           Else (feature 0 > 16.5)
            Predict: 452.74725
          Else (feature 1 > 65.48)
           If (feature 3 <= 86.37)
            Predict: 460.2460869565218
           Else (feature 3 > 86.37)
            Predict: 470.03166666666675
       Else (feature 2 > 1021.63)
        If (feature 3 <= 90.4)
         If (feature 0 <= 13.04)
          If (feature 3 <= 89.91)
           If (feature 1 <= 45.0)
            Predict: 476.56085585585583
           Else (feature 1 > 45.0)
            Predict: 469.0391044776121
          Else (feature 3 > 89.91)
           If (feature 1 <= 41.82)
            Predict: 448.9700000000001
           Else (feature 1 > 41.82)
            Predict: 470.92999999999984
         Else (feature 0 > 13.04)
          If (feature 3 <= 53.32)
           If (feature 0 <= 14.77)
            Predict: 476.7927272727273
           Else (feature 0 > 14.77)
            Predict: 468.3983870967742
          Else (feature 3 > 53.32)
           If (feature 1 <= 45.51)
            Predict: 465.83930232558146
           Else (feature 1 > 45.51)
            Predict: 461.1727272727273
        Else (feature 3 > 90.4)
         If (feature 0 <= 10.75)
          If (feature 0 <= 9.05)
           If (feature 0 <= 7.84)
            Predict: 485.61764705882354
           Else (feature 0 > 7.84)
            Predict: 479.45145454545457
          Else (feature 0 > 9.05)
           If (feature 2 <= 1024.32)
            Predict: 476.503695652174
           Else (feature 2 > 1024.32)
            Predict: 472.2794736842106
         Else (feature 0 > 10.75)
          If (feature 0 <= 14.36)
           If (feature 3 <= 95.44)
            Predict: 468.94030303030297
           Else (feature 3 > 95.44)
            Predict: 466.36857142857116
          Else (feature 0 > 14.36)
           If (feature 3 <= 92.04)
            Predict: 463.15733333333327
           Else (feature 3 > 92.04)
            Predict: 464.97999999999985
    Else (feature 0 > 17.79)
     If (feature 2 <= 1011.72)
      If (feature 1 <= 64.69)
       If (feature 1 <= 42.34)
        If (feature 2 <= 1004.49)
         If (feature 3 <= 51.47)
          If (feature 0 <= 22.11)
           If (feature 3 <= 42.74)
            Predict: 453.38
           Else (feature 3 > 42.74)
            Predict: 454.99777777777786
          Else (feature 0 > 22.11)
           If (feature 3 <= 41.26)
            Predict: 450.3346153846154
           Else (feature 3 > 41.26)
            Predict: 451.9499999999998
         Else (feature 3 > 51.47)
          If (feature 1 <= 40.81)
           If (feature 2 <= 1002.74)
            Predict: 457.4553191489362
           Else (feature 2 > 1002.74)
            Predict: 456.6445833333335
          Else (feature 1 > 40.81)
           If (feature 0 <= 19.6)
            Predict: 458.66109375
           Else (feature 0 > 19.6)
            Predict: 454.4599999999991
        Else (feature 2 > 1004.49)
         If (feature 1 <= 39.59)
          If (feature 3 <= 65.32)
           If (feature 2 <= 1006.29)
            Predict: 460.37300000000005
           Else (feature 2 > 1006.29)
            Predict: 456.9044
          Else (feature 3 > 65.32)
           If (feature 0 <= 18.4)
            Predict: 461.73
           Else (feature 0 > 18.4)
            Predict: 462.56000000000006
         Else (feature 1 > 39.59)
          If (feature 3 <= 82.22)
           If (feature 2 <= 1005.7)
            Predict: 467.2372222222223
           Else (feature 2 > 1005.7)
            Predict: 463.7456862745098
          Else (feature 3 > 82.22)
           If (feature 3 <= 85.54)
            Predict: 460.09
           Else (feature 3 > 85.54)
            Predict: 460.06750000000005
       Else (feature 1 > 42.34)
        If (feature 0 <= 21.91)
         If (feature 0 <= 20.37)
          If (feature 3 <= 55.72)
           If (feature 2 <= 1009.69)
            Predict: 463.0867857142857
           Else (feature 2 > 1009.69)
            Predict: 458.35499999999996
          Else (feature 3 > 55.72)
           If (feature 1 <= 48.41)
            Predict: 453.3379310344828
           Else (feature 1 > 48.41)
            Predict: 450.51359683794476
         Else (feature 0 > 20.37)
          If (feature 3 <= 41.26)
           If (feature 1 <= 44.78)
            Predict: 462.3853333333334
           Else (feature 1 > 44.78)
            Predict: 455.1100000000001
          Else (feature 3 > 41.26)
           If (feature 3 <= 84.46)
            Predict: 449.0289684813754
